solver_type L2R_L2LOSS_SVC_DUAL
nr_class 6
label 1 2 3 4 5 6
nr_feature 1216
bias -1
w
-0.0005061891258321639 0.003132679511055799 -0.0006337430657570088 0.001037587508916806 -0.001219453145768809 -0.00125115873192436 
-0.001767295088419101 0.002208038838693924 0.001856763286164724 -0.002037927846720999 -0.001232680669138074 -0.001819697632458363 
-0.01109991334235457 -0.0134237912875873 0.009181740714534536 -0.003579866971367425 -0.009381038521548408 0.0105241381924724 
-0.007202572250264896 0.008279140388639505 0.01058663458692922 -0.01459839070714851 -0.01132076183843294 -0.0028808758812482 
-0.02981472335939722 0.01491004814389199 0.01365110584888295 -0.004711326018756234 -0.02100434206356627 -0.04263545707902017 
-0.03067010744159823 0.02253356726673501 0.01864914273063397 -0.01086178305535533 -0.02039022858167947 0.00525364860119493 
0.009303160073746925 -0.004835783346416217 -0.0004015662672246106 -0.00244845656265575 0.00880643547526019 0.001429947482214658 
-0.0106459106137302 0.01497473913336589 0.01701547376560851 -0.06552708380946232 -0.001642786368759498 0.0319343325052411 
-0.004944122857681815 -0.01921310571470973 -0.02437022345339859 0.01177747725197885 0.01715266226258308 0.01077297002450315 
-0.009931648860066571 -0.005192083072556227 0.009773189505882712 -0.01557363784626577 0.006116151769837514 0.01447792360414124 
-0.01609314903196852 -0.0274489056418471 -0.01028271086105285 0.03023319486231 0.01752865362676463 0.01561263052265663 
-0.01657081096995764 0.01296263265518869 0.01063448796446011 -0.008657347105853683 -0.008603450232704458 0.0004910341214226834 
-0.03222730692034671 -0.003934060079539981 0.001673463081681608 0.02003426706918283 0.008343757703181614 0.001801101949709547 
-0.0072851684104253 0.0005949671190897205 -0.001737985607192537 0.002411269257785786 0.001093402304030293 0.006845652550400685 
-0.005252246993689326 0.007059947307871206 -0.004940707561257337 -0.00115425696267679 0.001501882433959211 -0.002160686047285673 
-0.007126701938884891 -0.001183550961845927 -0.004256027865996636 -0.004127554470080782 0.008296410131155153 0.002683945802448743 
-0.00526060212788559 0.004944328703645511 -0.0009732004020728595 -0.002170726884950899 -0.003029889599101676 0.00268522134020047 
-0.003625546130826162 0.009048499861244228 0.002580651526686949 -0.005327865333461085 -0.009174342106961851 0.005313480259672067 
-0.01294745103387169 -0.01454733034744186 0.01677078880318023 -0.005936818272357713 -0.02017919557539464 0.01546855243107233 
-0.007305692013029284 -0.00230785071253677 0.01971055164355459 -0.0159023920438366 -0.02010727804556557 0.007187566198712273 
-0.03523926467511038 0.01456707093997304 0.007082866651459086 -0.03010880941568568 -0.0166306169328232 -0.02022829353236781 
-0.02334002709275452 0.01137186117781887 0.009513245921546081 0.01149661313953132 -0.007356949884719339 0.0003070260330482615 
-0.01320772524691652 0.01049834528830968 0.001940459066780718 -0.002698698414938288 0.0003927550532732999 0.0003225260939815979 
-0.002201675105149124 0.003642240109125499 -0.004160267727979394 0.008474578639774612 -0.006003955552374668 0.00112092106981554 
-0.02226032510096801 0.01638392243834228 -0.01530614405968615 0.02004544381091525 -0.008901715883283286 -0.0184798431275954 
-0.01305536876315145 0.003241207650865593 0.001258965455615368 -0.010247588132892 0.005102505250444937 0.01135403105803063 
-0.02419736293360672 -0.006322229189231184 0.01425463458555013 -0.01296606776572114 -0.003844498859762333 0.007781271483558099 
-0.04293200266893338 0.001658373834207731 -0.002355547239035835 -0.008512971666870227 0.008655210300341004 0.03787912650466196 
-0.02550844968911521 0.02146973169786897 -0.01467613004995134 -0.002953773256530219 0.01670087214200456 -0.0007069607744256938 
-0.01727801725370185 0.0006190233697574802 -0.01069860716508699 0.01661138114699002 -0.01203688857839418 0.02398065211589639 
-0.01674559126099519 0.02057111386885905 -0.003424836087646689 -0.003119340779716627 -0.0122839820349876 -0.01257413048132382 
-0.005000101549761711 -0.00146656386456638 -0.008652456419182494 0.0212377042793727 -0.005916689429600061 -0.002935457869695371 
0.002638642330328974 0.003955651605670295 -0.0006002181582685799 -0.003356794877911542 0.002007365845389645 -0.002902548649197744 
-0.01205263471694729 0.004287469131722704 -0.002638899293305364 0.01294329994974746 -0.001106921052058143 -0.004070758906274423 
-0.01165749707370788 -0.0067169549383722 0.0223870413557018 -0.007971539770183594 -0.01918344178866175 -0.004417062232951028 
-0.007580015591993644 -0.006830097326391262 -0.00422458331572555 0.01132187971808101 2.585712101383892e-05 0.008046192590593422 
-0.03492716534259092 0.02478855533912793 -0.03260611216705907 0.03444387174099829 -0.03487632825849768 -0.005212784863907593 
-0.0263353899197707 0.002766248929980722 -0.01151770768957144 0.01856235456849164 -0.008095132229424401 0.008443379816629187 
-0.03088341214867651 -0.003522047366859518 -0.007945935091191854 0.02252904560477911 -0.002545871606838075 0.0079350734041443 
-0.007522215552091479 -0.004694367989013438 -0.008692713211505613 -0.003412948174733471 0.001883646687028676 0.0113608240594246 
-0.03143144177411916 0.008801922871073628 -0.006844273309904064 0.02591737219875255 -0.02893010233394758 -0.004421138779283813 
-0.01330538364331145 -0.006225554515931002 -0.004706188707200573 0.01144678866381253 0.004701365783222613 0.003744087744030152 
-0.01559559032798684 0.004690575561941685 -0.003916225368526921 0.00306770591359944 -0.005357820390035306 0.007214949336472161 
-0.01730726735505385 -0.01864994402427327 -0.009974594379653971 0.01053510909410307 0.02556532313357667 0.01728836737853636 
-0.03195658122850868 0.02723489270083661 -0.007477687272657372 -0.03367878216166435 0.009177353732959219 0.02218364593937255 
-0.01380738648351628 0.0005947115451837506 -0.01311012684186144 0.02233337324738371 -0.006963535892999279 0.006384107610106759 
-0.001087458161138136 6.557789453676603e-05 -0.002002085957907691 0.005114808996897589 -0.009373545648225999 -0.007383679591264776 
-0.008177336109752487 0.001020318955986229 -0.0009315513584422107 -0.004802798240051245 0.005895424924737837 -0.004446418048692357 
-0.009288403714738633 -0.0002282188249251579 -0.007579673539756293 0.01445115202009508 -0.002358910008841202 -0.001142345949017471 
-0.006022473528606204 -0.002467873656540421 0.00710645700087319 -0.009876073316867132 -0.01294919905183284 0.004129306309034398 
-0.01278986569074837 -0.001763771802379661 -0.003692215544337294 0.006017072219212204 0.005022503514011328 0.007158716324739526 
-0.002637454089005484 -0.0003869381935613109 -0.006591069470157486 0.02169863711622356 0.004349700462943555 0.001123985961806261 
-0.03098876132469616 0.01836783219046571 -0.02659940952676078 0.02985274477090908 -0.03338961001917301 -0.02077766850114376 
-0.008380572249746785 -0.03161533519359711 0.00157719413624907 0.0007706944400040121 -0.01022080189877775 0.03188284146102639 
-0.02304048143833555 -0.02134501699338224 -0.001730448049308789 -0.003655637757061919 0.0002899464768105915 0.03528198757600045 
-0.006141103429458206 -0.008564694537122566 -0.002906401794128186 0.001372552239364546 0.005605434729331861 0.008427535474303836 
-0.02706882638094889 0.006159350806201215 -0.005574474932651252 0.03344470659279616 -0.01756558664252263 -0.02414964034826553 
-0.00895096007582752 0.004545880465051182 0.001772840022209582 0.002695107967626293 -0.008217518023831968 0.002823662949308912 
-0.01131892588065379 0.007494308355905574 -0.00322117649509835 0.01443302371628111 -0.006898469384630068 0.001287827755200755 
0.001276394566034814 -0.03692409174756696 -0.002490877130010778 -0.002238246701314921 0.01363217091408062 0.02867984357343408 
-0.02548939288820322 0.01367450068806553 -0.01439440089498153 0.000960260010415839 0.004559961959453782 0.009988300149235147 
-0.01569945887246818 -0.0003895518128955514 -0.007153369747002768 -0.0118238640569036 0.008813961293579168 0.03795960553742293 
-0.006335486011508261 -0.009607010599285785 -0.003077292016552814 0.001010214745021415 -0.005701494618800866 0.01715176622517527 
-0.007429563503158475 -0.005714420368809163 -0.01136657677592466 0.006166949769756363 0.02340145592646449 -0.005414481599702292 
-0.003133148784491143 0.005415847197850731 -0.001649164058964312 -0.001567812480544577 0.004841291003262488 -0.005957849353120763 
-0.01268770459361872 0.003466871724148039 -0.005240724029362816 0.0004465721894448469 0.009192119392450192 -0.01032880226692026 
-0.009856914364296421 -0.0136001921085929 -0.002411353354835446 0.003232070210237131 0.006768659695650353 0.005056928226928045 
0.01790482359665826 -0.00812674582598198 -0.003725744339226613 -0.01903088335645138 -7.532720207467847e-05 0.01569137918874266 
-0.02356917302707805 0.02015479542936768 -0.02082854718812609 0.01729855517632461 -0.03162237460170693 -0.004820907334730009 
-0.005460194161705112 -0.03885746099639385 -0.01211559080116366 -0.01840065142591718 0.01218700685348439 0.05611669881103164 
0.01826820842773625 -0.01419290463633009 -0.00460220955738529 -0.01005455272376404 -0.02570760622785332 0.01447867735453949 
-0.005956401896389305 -0.01347742579936299 -0.002253111135189544 0.00813170517268854 0.001080557133764745 -0.004272181160099016 
-0.004341693603850351 -0.009507821725404528 -0.01546828225249478 0.02683112628879097 0.01923621117033916 -0.01749857522699324 
-0.005269197289862272 0.0008533456367935487 -0.00624475531955793 -0.004798890833249828 0.02082596162739087 -0.000442967703072207 
-0.002438905975463216 -0.002954286858825957 0.002461322636511912 -0.000393344310724171 0.005606796138140208 -0.004702767040257133 
0.03609035232254972 -0.0153592227514361 -0.00919087806338848 -0.02380876729987162 -0.003419923305926897 0.001624724899718479 
-0.03274382872810647 0.0214200821189253 0.004867287515037221 -0.01246458506616782 -0.003997258866757264 -0.008590740424043253 
0.004557348667423735 0.006679236827628667 -0.004265975646582626 -0.0009898649781433018 -0.001557088335665454 -0.01545804235786993 
-0.01599124459004909 0.003691540916057583 -0.01879921275804714 0.0379164798092786 -0.001002910569376129 -0.0002066946721920335 
-0.009237147924775212 0.003560500810943269 -0.005884170772898687 -0.00223874016124276 0.0138026682033585 0.001240561800512214 
-0.009070248079880888 -0.01881415341397696 -0.001652052848443544 0.02567632817492135 0.005729119463867642 -0.007599664219246879 
0.009707680092615427 0.001867856716727051 -0.001933252351995002 -0.004529313802042364 0.009990040189831307 -0.00754841495212004 
0.01733190734891875 -0.02592535920070501 -0.006017885890392905 0.003755755309835236 0.005813119897565335 0.0128284460631531 
-0.01544715129469873 -0.04738558038199606 -0.01221470891177155 0.001234127674442144 0.01413564701736111 0.05246477664816421 
0.0001465998360385329 0.01944403294158776 -0.02738323131139926 0.01082897692108124 -0.02011964030678966 0.003889220626366576 
-0.02718298618513273 0.006730005748400012 -0.01797671586340945 -0.005802355319958994 -0.005461831336955632 0.009846776343120738 
-0.007844499755286428 0.009694151113263137 -0.0006552166786250962 -0.01761495653996395 -0.01651691937635128 0.00520549958032118 
0.01702552253677686 -0.003666950098327927 0.004025474773537078 -0.01043813347716763 -0.005712875625716124 -0.01332477449508616 
-0.009772218028482433 0.03508963750931302 -0.02193551891598243 0.001020064919258154 -0.006992069542261192 -0.02046776052775578 
-0.003978900808520248 0.001725464507607346 -0.003178092951967399 -0.003576892220664044 0.001990211944644229 0.002567131270162844 
-0.01106541128108704 0.00565503016773839 -0.01069711983837418 0.002426670224881047 -0.008200869823033734 0.01013076029995813 
0.007882134582181866 0.03180848534055236 -0.01406812891434222 -0.01745280792210631 -0.01494530487646472 -0.008535711436256968 
-0.002388377028481902 0.01219827195622418 0.01509348370327768 -0.04343628190535211 -0.003797064449539299 0.01508048686668681 
0.02141148407940045 -0.01880837491252522 -0.01199504498847562 -0.005829830220650071 0.01987416394968205 -0.008268782999002635 
-0.01689360208793675 0.001104333741079708 -0.002243671179491802 0.008306377637318641 0.00151683681247847 -0.004473757430783246 
-0.01305127042523254 0.0004144111870231428 -0.006873928152451749 0.00311946878777618 0.01751169608454318 -0.006279839036984872 
0.01731822290600533 0.00297254683801409 -0.007425736255628565 -0.00159159887700422 -0.006440925696559972 -0.000200310983341746 
0.007625953027212468 0.003377099177367038 -0.00931080427190447 0.01074473593399749 -0.004582801803872666 -0.01522162455964705 
-0.01533051091530384 -0.01009376366693778 -0.01080126777247949 0.01425180111605184 -0.02150093695242082 0.03323918342951907 
-0.03448614676624005 -0.02863596754394675 -0.03358032332402868 0.0472597379669568 0.001592957911538709 0.02197383936736588 
-0.006889481685856027 -0.01474892133972566 -0.007764338129285651 0.01174671209556099 -0.01137808576807482 0.01348071152801232 
-0.01666942763416046 0.004439976398318017 0.005839060850188833 -0.0204565187128019 0.001583194219322275 0.007760691624140168 
-0.01761408411238178 0.005874066792120053 0.01556456095600889 -0.01586998186815191 -0.019452614484055 -0.009002119078579415 
-0.006898647996582106 0.0191046233048644 0.007493004036588425 -0.02265196030436144 -0.01057605038501834 -0.01407644494551091 
-0.02329160444392443 0.02532211534994441 -0.01538950702068564 0.02036215458519111 0.009416008283022654 -0.01915763365570235 
-0.01690565741188415 0.03789897590358694 -0.01037227671869351 -0.01904989565206821 0.007377044197203825 -0.02365550138073955 
-0.0189612479862117 0.005142507394193765 -0.01194923291920598 0.01099633688869798 -0.005601641783810721 0.007784253358718837 
-0.009130419713228267 0.02167065935742298 -0.01836098864099576 -0.005966850385498371 -0.01370831308481976 0.02208154423606747 
-0.003355950229090355 0.01595123689891065 -0.01132563134313163 -0.02055359059453866 0.0001865232879442791 -0.01587689225746716 
-0.01114153317228008 -0.02399542761684924 -0.007686744232674209 -0.01534881486012456 0.02432332682182051 0.02214323503467588 
-0.01139469047620945 0.004356414015795872 -0.004520045119913943 -0.006723315056876885 -0.0008533222212791334 -0.004319755714221811 
-0.01015357942328078 0.01661980622958312 -0.007667694823746233 -0.00540239699737279 -8.803620723673332e-05 -0.005716652276668809 
-0.006703332461839765 -0.01272656505937564 0.01142300519291223 -0.008105741791044643 0.004574318240782489 -0.006337057313312079 
-0.03089379511704819 -0.007934772898323172 0.006589199066570282 -0.007865145660173607 0.009959558675191015 0.001473979039261037 
-0.004046509189187708 -0.003889766182934241 -0.01463480171455919 0.01047323522115337 -0.0201804049442601 0.0186189448932862 
-0.0273217619268061 0.02473198818998161 0.01048624194880842 -0.02744138442246041 -0.01801310389145675 0.00386704562308871 
-0.0228560906270395 -0.02352548727128783 -0.01883300205740003 0.04125363674406659 -0.02661524998177155 -0.02361376986782026 
-0.01862287600698803 0.007699892911823257 0.007403021625447359 -0.01908821940562085 -0.009651725081862713 -0.002109083960275792 
-0.03710520074983445 -0.01420449918919847 0.018520633708521 -0.02070009167771754 -0.00293753315957159 0.02164335273513732 
0.02578831516930153 0.008926688438865446 0.005287011955743 -0.03959713026065895 -0.02443477513423733 0.008979145388621384 
-0.02533248528113137 0.03150199452645581 0.003663191544503426 0.01223119098465622 0.02417108303522919 -0.02326366270188088 
-0.003552441809870974 0.007026572439578466 -0.00510945079147646 -0.007123851902151892 0.001990502220709357 0.003031074102155597 
-0.001727883056848201 0.008391466761707496 -0.002892744615627608 -0.001429249170692288 -0.03088927214684488 0.005076748411039804 
0.003415036309628059 -0.01174464945038571 -0.003343371724376625 0.001317805484902555 -0.01720212553046017 0.02678446758930609 
0.002555271228240577 0.01494699149233167 -0.005224017356914671 -0.01959576872130346 -0.01572869628843537 -0.01243090312024116 
0.01136279516684814 -0.007235233304049095 -0.01204196059700686 -0.003419905149321457 -0.01627174813319645 0.01726500672184651 
-0.0359331193745841 0.0182780186017111 0.007851208555528193 -0.01518184640235525 -0.009025738284394824 -0.003825121242083236 
-0.009117724304660964 0.0004920408615501646 0.00239727728024109 -0.004558536669718954 0.007948168879261978 -0.001051252386816887 
-0.00738277458006631 0.009478143456838565 -0.004113309905313919 0.002765108410980244 -0.003156943043559132 -0.001377925704573648 
-0.00169500305339158 0.0002307299593430899 0.0005729095860520055 0.001821429224103159 0.0008421618946426339 0.002399213422010678 
-0.008319822603737002 -0.006676909904722677 0.01221936536136626 -0.000194076152849022 -0.009280990206543577 -0.001061643683064963 
-0.008977112522843535 0.01287531230524808 0.002724362933622379 -0.0002806793512160723 -0.004409722924474148 -0.003902684793440418 
-0.0005931655397965585 0.009492317634882386 0.001932550316184672 0.02116612906419716 -0.008089254220496823 -0.023861764944056 
-0.01122504363300349 0.004837141028200214 0.001893965456672931 -0.007185824368690236 -0.004666113051007614 0.0001830361802598312 
-0.01431456869389693 0.008738059119281627 0.002095986251375504 -0.002913273691838948 0.0008969268926619268 0.004165947510631378 
0.01900240941158484 -0.01646293401496497 -0.0217520004359993 -0.03156678824154199 0.00132102204660951 0.05366549556902896 
-0.04063263294606443 0.02960857070494396 0.02244870266087438 -0.01549696370560765 -0.02349532789289504 0.0002009844481645498 
-0.03364997383889258 -0.0007235881579149198 0.01219443112040194 -0.0103064364257705 -0.003997418923234419 0.008970958286898213 
-0.02716912052465054 -0.02348223854191259 0.02744109195499008 -0.01659573559588356 -0.009827686452331473 -0.002863492235647716 
-0.01726934051273766 -0.001047897408404459 0.0005752148170876894 0.006366363944636902 0.01123745888459911 -0.005737231759179328 
-0.02909179461294776 0.01949791764488488 5.171050015878198e-05 0.004379646158640811 0.01270074325709423 -0.0139717323539569 
-0.02401170297734433 0.01960705608036088 -0.001719747550259666 -0.001880616947343611 0.001409666991370001 -0.0005859844472529957 
-0.01501287592207785 0.01552656253512005 -0.008720956207367568 0.005062466758266021 -0.002748915744424951 -0.002786556871046176 
-0.02245825980343013 0.02040969512131977 -0.008026888026510925 -0.003973312145821268 0.004011034037463486 -0.01112812242795771 
-0.0007157888183689422 -0.0003875968632618781 -0.002709296366382369 0.0002127038720917383 0.001444703131266523 0.002743066332395978 
-0.01258369309486439 0.004787422836219722 0.01103834484682115 0.004920071258706765 -0.03428641445551311 0.0154490871571925 
-0.04964580478763959 0.006685337468413492 0.0766409503120915 -0.05621026096000229 -0.06045362953097926 0.008206627740098083 
-0.02533524255956227 0.0038768286996325 0.01954629690342261 -0.01369287236934553 -0.02176736482954766 0.007180792035218031 
-0.02136791124924612 -0.0118925620075459 -0.006579603501588645 0.005053259733743844 -0.05507394983390722 0.04751233199425424 
-0.01702899425177814 -0.003732739651040967 0.002052977130969778 0.004146692985319983 -0.006156547409264664 0.02123921201094688 
-0.006551259338687191 -0.00946582421867073 -0.008079248257619366 0.0006347148506430656 -0.009708865394765063 0.02986239470902309 
-0.0140659183341786 -0.01614575275869933 -0.0111269275770653 0.009624295166441985 -0.007500816787799377 0.02633947032267965 
-0.0227179133598099 0.001173431672480056 -0.02369952482472924 0.02141091593920404 -0.02472174746859396 0.0196690179749478 
-0.02394942103499088 0.00322355879635268 -0.002022306980958695 -0.008141817163447331 0.00176468808555672 0.02092229233295193 
-0.05275428193548704 -0.0009137344796586527 0.05804906025691518 -0.03358126966162578 -0.01069601527213856 -0.002572447574858775 
-0.03717553072351377 0.003670665595988506 0.0205333310896017 -0.002314618729914629 0.00317988473867449 0.01285733143784233 
0.002134548704028564 0.009521105721864155 -0.007016841493298016 -0.01976041828246682 -0.0124251887060855 0.02102284708253178 
-0.04111568977667539 0.0286984956424461 -0.01616297584885488 0.005977694648400133 0.04587731497533806 0.003100836363476251 
-0.0337350210876264 0.01630528714226191 -0.03268984425917554 0.05036907994436299 -0.004688705862260234 -0.01993369249800963 
-0.02949686018985561 0.04000491071059979 -0.02578610829962771 0.007227109874211091 -0.0003798120605298894 -0.02669014097198529 
0.00779893741557185 0.0009343008174771197 -0.008559961584998305 -0.01058142212984668 -0.004789110705764156 0.002436250480656621 
0.007690716542209675 0.007594920671341563 -0.01503211902073982 0.001084033021098171 -0.005127601786220271 -0.01543970214263412 
-0.04441033913083035 -0.001969846007391326 0.01595902638352792 -0.02221370016718989 -0.06086098272006673 0.05369539705802312 
-0.06121865738758212 -0.02557696237198271 0.02072580391047344 -0.01120635477099975 -0.01296989771970416 0.02970176512532424 
-0.02447266747094052 -0.01419527820857172 -0.0165695619463923 0.008643428889171818 -0.02490490820129114 0.04265043629635497 
0.003903133817171371 0.009668482430875444 -0.01220929054883628 -0.01127003026993234 -0.03048546682572534 -0.00243403812394237 
-0.0163089633097254 -0.01917397735454522 -0.01082096182183108 0.01563726158200084 -0.0139069591369399 0.0189074525690503 
-0.02220413871214882 0.01700547512978963 -0.009370747731846131 -0.007137114802437558 -0.006635668779194094 0.009984698896024847 
-0.03773708361774974 0.001586794900563517 -0.03283127544203287 0.06057320933460965 -0.01576684248902465 -0.009031687170933778 
-0.02324018092882869 -0.003837546317927941 -0.004990170366783467 0.00672928761691721 -0.0007774004944531559 0.01827471639191207 
-0.03612139363281584 -0.004832633821414832 0.0378942193863919 0.01551288461295306 -0.05244620615442831 0.001921069489153695 
-0.04148026727830471 -0.002318235709256516 0.01772372570795476 0.009446514840063236 -0.02831355158029315 0.03222287601156909 
-0.01605200243581963 -0.01411876635051625 -0.02847865338049679 0.01217054079160631 -0.02156927369371665 0.05640318382725096 
-0.01106692237947934 0.01360971346931449 -0.02102613151377839 0.0005884402972266854 0.02015371920559916 -0.0001977623315365956 
0.01726406805160218 -0.006047690182975721 -0.01489067974870256 -0.000477542181090716 0.02918892725559518 -0.01619853317586523 
0.01677811834572017 0.00821558144402188 -0.0289629811266575 -0.01200858175227166 0.04658212431143948 -0.04712693806651637 
-0.006106550310326628 0.01488396472445645 -0.01135289711547111 -0.002570503235385075 0.01973048905334885 -0.01474891404084392 
-0.01415546608620113 0.004053789883573186 -0.02188312440143609 0.01021255796117548 0.03718779907595587 -0.009430529778833709 
-0.02386183003489871 -0.006790734863817896 -0.002860320210489937 0.005754916605922234 -0.005698790288740058 -0.0102746666573827 
-0.02155939303621973 0.01226798275930469 -0.0136210813273195 -0.0006633264463268805 0.006809389432399963 0.009118958504973625 
-0.02174442678881508 -0.007056320993279457 -0.01248536689710896 -0.04796571904130967 0.04725095558038943 -0.01201908662294513 
0.01733483358279915 0.006086141846221845 -0.01461688132893884 -0.03013225736618452 -0.01901088358691525 0.02057673837900178 
0.02997805871457557 -0.0002102363257581631 -0.01775261432379356 -0.0367830191848367 0.003358997389967387 -0.005543899906892201 
0.01329460380933449 0.001451754061343821 -0.01746734819365509 -0.02087438407280977 0.01504508405654486 -0.007138815497942427 
-0.02871837774715541 0.02313996298320505 -0.01343814789155842 0.007077986240037046 -0.01439567547169855 -0.01245541102563321 
0.00321751087152822 -0.005519775483482472 -0.0005388347844099122 0.004649473230092091 -0.005034388714033647 -0.0002332048895966755 
-0.004899299878120709 -0.001636892893257327 0.006221078313086285 0.04438323913706105 -0.03475759735355547 0.0022692743985781 
-0.02980203609916318 -0.01889901806849784 0.00133008823853841 0.02085416658360324 -0.02463539471156847 0.0435637443177226 
-0.003122838383264229 -0.002044494007711728 -0.04289582063499849 -0.01246577282591655 0.02236957912933312 0.03569563259191608 
0.01040422706811003 -0.002862865828558284 -0.03382701565173515 -0.0225987923128208 0.06816790088933251 -0.0137827486135585 
-0.01722358097841182 -0.0177486018572624 -0.04421701602036106 -0.02099129750600555 0.05950806255845723 0.04645510091363728 
0.0443035367036576 -0.007588369161487168 -0.01052496481808789 -0.01259674315552794 0.009911241314610844 -0.02332561683622648 
0.006324014070249183 -0.006117709498582837 -0.009610412950638463 0.001431260698422389 0.02322534745096026 -0.02350602236875459 
0.02959246584659407 -0.01535628718107016 -0.01570939154103672 0.001987824593522516 -0.006218707700100966 -0.003352928307016102 
-0.01843611226674207 -0.02005254131519672 -0.01459173241918253 0.02810478889289525 0.03206312173523621 0.003141365986550571 
-0.01694830044190451 -0.000605219550940758 -0.01357090281851813 0.004506648291549464 0.01717094971805755 -0.001771350721344042 
-0.04684500582548486 0.009921294877946693 -0.03058775687910431 -0.02130856905889152 0.06692792154611882 -0.02319039619813974 
0.03792543278811922 -0.001982412215777071 -0.03161262007760191 -0.02355047958091554 0.01785704768544439 0.003684733310325895 
-0.03819390780648347 0.002111069022259027 -0.02995250563501177 -0.007697398203694675 0.01927997174647473 0.007189076821389 
-0.005485171710730917 -0.01574252233335627 -0.02095220815431699 -0.01137350459756655 0.04846636849031021 -0.01204717968006456 
-0.04629596370604922 -0.006568343050027318 -0.03997726551165681 0.04226658910075187 0.04328243795904727 -0.0133764994294535 
-0.009039959645888655 -0.01182531691481425 -0.005651778252576932 -0.005466774450204909 0.006322462068408596 0.01377961675674286 
-0.01336091757181044 0.003724081142079302 0.0005795456127147327 -0.003024805922955317 -0.03715820608190702 0.03618020393781829 
0.01408110634994317 -0.02255306638120353 -0.01239687213532987 -0.01874244959627454 -0.009777343074625801 0.02238791568186961 
0.03445284279938557 -0.03378577320369446 -0.04307510819949229 -0.01501644415836702 0.04162473297921714 0.03116745122781121 
0.008919172506036124 -0.02834589765072065 -0.05058791405243651 0.02483481810322738 0.01921966654430214 0.03815789248689298 
-0.002993205257859524 -0.01276727880837178 -0.03554467586980101 0.01956430310952806 -0.001736741351595982 0.03200844087537624 
0.03627493442272008 -0.01458906958948499 -0.02032160051185236 0.007805836852035161 -0.007110129895132876 -0.001720642201763392 
-0.003557573631766829 -0.01495841342260094 -0.01149813491426685 0.004904143270711462 0.01888516872676401 0.00524287525793202 
0.003161817239773338 -0.05330073413698513 -0.01464746695150535 0.03217772415980386 0.04083613245012625 -0.01315688750405103 
-0.01671938280462322 8.338104516290898e-06 -0.01482000989879448 0.002017200519905081 0.01705308421664401 0.003470327813370147 
-0.008250055955290887 0.009837688917516829 -0.01842361486930522 -0.01638171892023818 0.02236997477833599 0.0108041707132463 
-0.006501103199925994 -0.00213695445034506 -0.05269331078130732 0.003301463737693114 0.08874259039279886 -0.02781090597916035 
0.0006518638456883265 -0.009695738550974217 -0.02748141707506175 0.003520423596031844 0.00960227420788828 -0.01342029194336406 
-0.01175859920170429 -0.009858504707002828 -0.006868371896660575 -0.008617808621593847 -0.04107007961865367 0.008806778518873537 
0.006385315341709162 -0.02119015837452611 -0.01874550569618592 0.01772621178405153 0.004311051826247823 0.01492795492521605 
0.002680872192822826 0.01533420346432305 -0.04015641164881109 -0.01597554776282775 -0.003692903764445804 -0.01371039788180095 
0.005048856985922917 -0.01568748292816775 -0.02033083494468063 -0.01455458396994446 0.03867632453638637 0.01213672602422148 
0.02682432530299799 -0.01448101584266427 -0.01557606627953334 -0.007613502136515435 0.01795244736614652 0.02099141962174293 
-0.02712010160716359 -0.003582339194335881 -0.02827781721862404 -0.01033554853743255 0.04753660399662846 0.04368083086553016 
0.06923810508308965 -0.04932638989303141 -0.04268429620746139 -0.003743138493374477 -0.01889784874753259 0.03850597625137 
0.001026976392477006 -0.03050593331528456 -0.01750873282571459 -0.003441136424734969 0.0006516936532384726 0.05059665826687607 
0.007979711613201218 0.01629964503010193 -0.01510438381913581 -0.001221146198302893 -0.03354173212120384 0.007026037732701576 
-0.004526681946718817 0.001332434135661036 -0.01311456316376833 -0.009852212238604623 -0.002872958130207037 0.001793057625853332 
0.01311302204645633 0.002439520397219628 -0.01581329246174614 -0.0006019503137135856 0.01325238772359475 -0.0007131154186794334 
0.007764223849544038 -0.02187221515349053 -0.02231904051715849 0.02237233587266561 0.0104929834102924 -0.006279140242577672 
-0.01221043582863007 -0.01358628529117873 -0.03156246249282714 0.01930434959351727 0.01112218366865459 0.01532029942950935 
0.0291508436501374 -0.01649708030181217 -0.02101792979547309 -0.002356072908482027 0.01875400481919616 0.004223899394022304 
0.001003494169626391 3.750586489469835e-05 -0.049249859745868 0.01835800278786664 0.03179608202628952 -0.03005204760284595 
0.003920901410587814 -0.007333973739692424 0.001483007735599368 -0.01734609374979525 -0.01977333472694738 -0.02694307331434286 
-0.0328658658342281 -0.02191536479269491 0.04348986707046161 -0.03519769460732985 -0.04407702883208521 0.01181259536818095 
0.01943287880681324 -0.01262384505623963 0.0004919366226685983 -0.008707662598623217 -0.005952540563757976 0.0008066577304305202 
-0.01172054787800312 0.01789544947329374 -0.02286720615312307 0.02916022863951871 -0.005285346415248977 -0.04056363741249067 
-0.01493861770806001 0.02957406902483183 -0.03178967871649702 0.007813940240975292 0.01041660743809386 -0.01700241281797297 
-0.04958671906419362 0.008809568956827106 -0.0386663498134246 0.01303937877822295 0.0282693245838923 0.03845924734922601 
-0.04192029141075511 -0.01836214483211596 -0.03854993456875241 0.005805674544329662 0.07629654643448003 0.04730163361919602 
0.06085255677799847 -0.0219574379670369 -0.04992872232960657 -0.01276861900457186 -0.005319412765220894 0.02592702274342958 
-0.008253634833183728 -0.02874383569870392 0.006646935537839543 -0.005480510381149048 -0.002522350936191662 0.04252396687839152 
-0.02232834561961901 -0.02343315176266334 0.0454240711409265 -0.0380029516470832 -0.02252976898995922 0.01371139491415161 
-0.00674037843634299 -0.0209397277007648 -0.007610637184582434 0.02600615169415061 -0.01029471091008327 0.008737175024347928 
-0.01027383982297649 0.00688885983883306 -0.01034987065660709 -0.00292289640272479 0.011338614138819 0.002843667449894789 
0.01415094039677375 -0.01134386119013792 -0.01317727772503461 0.01442378470837249 -0.00200665073790338 -0.01686119366820408 
0.02036667075569078 0.0004264510416329887 -0.01977472175703443 0.003104834046246906 -0.0108617269135238 0.01205001514266791 
0.07691803486598341 -0.01012770271607402 -0.02015597385419685 -0.02096297376977762 -0.02099232176814366 -6.393162814505989e-05 
-0.008581312461304695 -0.009929655686695873 0.0180865243086058 -0.04688063243412418 -0.01768303308339844 -0.02091315459090868 
-0.03727566541973777 -0.02855246264530674 0.004151407118302425 0.005173333145317506 -0.02907128271491185 0.02078665037391047 
-0.04834076824801294 -0.03849419577685749 0.02864460222172713 -0.03284203292035515 -0.024509881815352 0.01530698755362912 
-0.01525284059611479 0.01495479075393374 -0.01291588250284718 -0.004036069053914883 -0.02372048422922211 0.02730348784502985 
-0.04757979091319708 0.05590678288774747 -0.005272094361165682 0.03616212049620138 0.001369517652307669 -0.04524746306478163 
0.006835313775758021 0.001583301059137441 -0.01359986376989206 -0.01581897265898781 -0.01959989564434078 0.01401781279855273 
-0.01741358918925384 0.006339034669389939 -0.02262207483064562 -0.02427277642899249 -0.002532229759302206 0.02437368702596415 
0.01170948455053733 -0.001660395582888578 -0.006852135245840479 -0.01556752704907088 -0.01171911153503071 0.0009016795052286347 
0.003299012090390963 -0.0002117132246989871 -0.009502853465408493 0.0006634904429719908 -0.01880968379677968 0.01383208606730056 
0.001169208412093225 -0.02339718978380392 0.0001608960076911297 -0.009974348885928432 -0.01828970261924861 0.02130222872173164 
-0.0349051188206072 -0.02591698122319352 0.05590545903119756 -0.04755556428911754 -0.02722487410901193 -0.01962119971623211 
0.007506771796626583 -0.01137506579809087 0.006843226029937555 -0.0009846057261567239 -0.007647352358676768 -0.007692603178964079 
-0.01078988655228869 0.01573946590428891 -0.002226552641286259 -0.001667979862796018 -0.007325011935987655 -0.008187816322453436 
-0.008501423668882839 0.006258420841951618 -0.006813977405061341 0.01585098797775331 0.0006034944728499563 0.0006524987347205325 
-0.013558378673816 0.007991888070520623 -0.004256591272056154 0.01517380513983584 0.00465368381872211 -0.00416545995563559 
-0.002542246450015924 0.01430451929239017 -0.001934981898551906 -0.007238683582291339 0.005850372564147716 -0.005624463846381033 
-0.03540278844596847 0.02924313586203861 -0.007634297430018663 -0.007665078768665548 0.002399921339723124 -0.002068725591308618 
-0.02285546898286853 0.01373903458954333 -0.01254905808662393 0.01047804842222429 0.002947710234505766 -0.01307884751484006 
-0.02119044159972832 0.01991602512397978 -0.02184650227833384 0.01268565193145768 -0.002218659032099396 0.004135662335247678 
0.003819009772935991 0.006336174688041124 -0.01681461393023284 -0.004014021433892582 0.001631250241039019 0.0156681582008129 
0.005693741998959698 0.003206249130421951 0.01976233859378052 -0.03539233434659011 -0.03817903311812096 0.03419276371434467 
-0.02816259592181931 0.003503238034645735 -0.006936689110935547 -2.229513170355622e-05 0.03361733282434333 0.01341859859940773 
-0.01872489315608493 -0.001295708906436677 -0.003523077405433752 0.0135912330885471 0.005936804683130258 0.004598317039859686 
-0.02142376083522944 0.006918338628967582 0.007689816304635082 -0.008382902432189485 -0.009778055274284393 -0.001799979206890782 
-0.01903763175154307 0.001350396340107636 -0.003336233330520104 0.01126834916608702 -0.0002442945301606529 0.01703361282564374 
-0.00357005726953049 -0.002268470635153257 -0.003043549959723058 -0.0004088931394083108 0.001582643354133442 0.004145647233057571 
-0.01144775846429685 0.008065795618938089 -0.02097139646597935 0.01955216545955374 0.002472870136334014 -0.01872782670613405 
-0.02339323683785288 0.04347326812010677 -0.01606481940693744 -0.004363963830539815 -0.007185372374615902 -0.0155000053711772 
-0.006892614490742255 0.01555469167128961 -0.005393840084240791 -0.008211709157594102 -0.009063668203523955 -0.009235174803854818 
-0.006312910746630702 0.03101619458329103 -0.006452157329403597 -0.008765145707886874 -0.02084517333595595 0.0008014839043351433 
-0.02113915395022475 0.02475366822108226 0.05187463306236342 -0.01841705352876328 -0.03032348404883946 -0.01474952017303308 
-0.02339510249436929 0.01793466817177177 0.01722005957337046 -0.00697129325586779 -0.01457385825780484 0.004886489771995996 
-0.007307096055860937 0.01525292969442576 -0.01996595942583954 -0.009415886193480893 -0.01707245324096011 0.01918153792300041 
-0.01843084278293311 0.003505811679559062 -0.01889872767075768 0.02138167057350704 -0.01445963384869477 0.007623937436995637 
-0.0071373466727618 -0.003631862719105189 -0.02792144026631149 0.02663729201527934 -0.02902998933693663 0.02114345830732095 
-0.005178461773688567 -0.007024359209688903 -0.01545551316356747 0.02576862022405585 -0.01124228025054948 -0.002493553004687199 
-0.03285850102914637 0.05586622910752286 -0.02958525642792379 -0.0003362876388215137 -0.001911150541452484 -0.03316228717730037 
-0.002880517321038521 0.009611668176725765 -0.005197493055888851 -0.003283933232888885 0.001245772082838476 -0.009359136909189806 
-0.04328710742819088 -0.003013402297820577 0.03628438790853706 -0.03122732603994855 -0.02225150337012894 -0.01847860661704887 
-0.02415532100065465 0.0231204945484017 0.01276182451767955 -0.02142362321574929 0.008923587704037464 -0.01729175757582563 
0.02289637378904815 -0.04169352686010391 -0.01771128141747049 0.006664939123782653 0.01829143159060099 0.01067730979079355 
0.04166937866814224 -0.0370113645725204 -0.01262216587396231 0.01888164676959831 -0.00672169098534175 0.006073606578602621 
0.03336013130654208 -0.02335919075550612 -0.02317530204812423 0.02725745099035199 -0.009202281447190571 -0.01390689353586063 
-0.0144332466023327 0.03273658322724406 -0.008668768150206473 0.005001583949847659 -0.0279740947687033 -0.028253240393522 
0.01824894281570803 0.004611002423600969 -0.02053064799140021 -0.01752696782851661 0.04350254355982199 -0.01704360195641763 
0.02570499881745512 0.005563397403249081 -0.012528658462348 -0.008694959843920788 -0.001442648878785753 -0.03468924411187212 
-0.0440367248084237 0.01379998858741292 0.05672641035211059 -0.02588906828599467 -0.05650928241642321 -0.008629529116928419 
-0.002331629879482667 -0.002072887452460072 0.007570655143930943 -0.009519286583326713 -0.01768186914907331 0.01150080593901147 
-0.03553472928095942 0.02201203069228124 -0.01863439203123373 -0.012228604968418 -0.03125472532403024 0.03221759590297337 
-0.002117344129143945 -0.00843175098077477 -0.01836351080102662 0.007966639042534137 -0.009213323226328255 0.01506892333352933 
-0.03631625416986838 0.01662305236040567 -0.02555177109941233 -0.01118581702538524 -0.01361256811198868 0.01377802570019382 
-0.002818415270172844 0.005152914235439207 -0.02956690929389873 0.01859833509430115 0.01090840740787708 -0.007045711769429435 
-0.02087489488872883 0.03772040815662064 -0.04384750590410397 0.01449754390498368 0.03486491719259522 -0.05275075732680132 
-0.005990040569072015 0.02263687992783411 -0.008335900880249367 0.003378422483980749 -0.003527733265011648 -0.02329853438507894 
-0.03596099404638132 -0.01008757738593202 0.02864919463025181 -0.0008089719837586718 -0.04968183001511085 -0.03767243619911226 
0.01318589506122107 -0.01557311529227691 0.01504168226469906 -0.01399547240820611 0.0008120231587504561 -0.009570214331216487 
0.01406839243842566 -0.03305758136257966 -0.02002113265173023 -0.002591180178764585 0.005443724176260885 0.01056517204530335 
0.01987149830260255 -0.0192647090128018 -0.01531687541665152 -0.002994209553446259 0.003507384851156751 -0.006254827314832036 
-0.01305626969789663 -0.01787765555018831 -0.02062348024905278 0.003766653794667149 -0.0149128394343322 0.05594049047076184 
-0.004487417563276316 -0.002693721797399504 -0.02275042981999369 -0.001727398099788465 0.02605317437305891 -0.008340170125715326 
-0.006574547681580689 0.008166269812464743 -0.01266847755535985 -0.01906494844739568 0.007556570521360191 0.005982441735962877 
-0.002615880500809624 -0.00818910997699778 -0.02149722956593475 0.005848340915276484 -0.01653755046877134 0.03583641384732902 
-0.02635153421703424 0.002116485430381258 0.0201711397702481 -0.02875088700921316 -0.05308200895768501 -0.01834536187846901 
0.004757394508375133 -0.04345722806237653 -0.02779792074914451 0.01934521663439163 0.004092188533308003 -0.01633880571522416 
0.001102010797068278 0.00100594751379753 -0.0227434550048938 -0.01473855304073019 0.02663240956595509 -0.02825460114528247 
-0.0009882626043609354 -0.02722057018120218 -0.01673357530666382 -0.02313510499021156 0.03391331277806207 0.02347208043175958 
-0.01166077455360849 -0.02208912414334271 -0.03145007784439237 0.006932146968655645 0.01752804289423797 -0.03064081306229862 
-0.006573597473783712 0.008340750597094675 -0.01049883382446836 -0.02559847812782422 0.03693530343834426 -0.04546598818096239 
-0.0561354630509101 0.02888313123030241 -0.04501290830627393 0.0238583653309504 0.05568782576614787 -0.05840740258845709 
0.02953536160473475 -0.01459463440481818 -0.008849873180042539 0.02057080380601998 -0.00639459604685058 -0.02747417488933927 
0.004158078177152721 -0.0005632754171721903 0.05668964362462881 -0.01713505498346229 -0.01677703859523427 -0.02003187663194447 
-0.003595416310867655 -0.02641375396628361 0.01644043632378485 -0.0007058116187087037 -0.01406290649641245 0.01045729139477318 
0.0331686613198091 -0.02568786797724972 -0.04362969404161735 -0.001104159913735363 -0.004939178001596497 0.02236182982331018 
0.03069463347734834 -0.007787270878609523 -0.02970395359128538 0.01114225381432751 -0.02055833430296746 0.02225286473581848 
-0.03255104825838534 0.008426222048032127 -0.05119009767287561 0.0336185592317275 -0.0133183546975291 0.02903333661939272 
-0.01385821080493208 0.004261136714385627 -0.03037500327674644 0.01369767836651265 -0.0009337758951304189 0.01972345097835843 
0.02578515046559479 0.01503844524870655 -0.02494948303310964 -0.02445478219292678 0.01815916146928358 -0.02352527810550443 
0.03139964291494488 -0.02854634276541582 -0.01756307924223052 0.003863365116573558 0.03321047001866646 -0.01982822161098191 
-0.05735545831528681 -0.04078367678899177 -0.001215561041293913 0.01580574430046938 -0.0270572456237827 -0.02273674020681452 
0.008094405315659511 -0.02439021578813861 -0.0123781008187523 -0.0008162774003613403 -0.001713402458938607 -0.01035479304374259 
0.02630935355505496 -0.03715268030935517 -0.02157427524746275 -0.0171102036417981 0.02173791880140958 -0.05741200323334899 
-0.008172687353119004 0.009829547658827799 -0.02184660542020785 -3.399299166277827e-05 0.02778415327719227 -0.01373744493555514 
-0.03158122070239519 -0.007613475487744902 -0.03386733696243577 0.03688005384196629 -0.01432249591730792 -0.03847238597807161 
-0.0148674303348446 -0.01177125202058146 -0.0251649147932259 0.02663876176002478 0.03046777177288866 -0.006703257811669845 
-0.03772176740938942 0.01065659210090869 -0.02965728336272333 -0.0008118444800841897 0.02500862734842932 -0.02101665467867529 
0.002109463582350066 -0.00578461276909176 -0.02258403199299014 -0.0009231333977028468 0.008069759701545757 0.006974813197687503 
-0.0362147264519305 -0.005833404858431835 -0.005520682017147644 0.02184182578636198 -0.0336280780593731 0.01200043170907737 
-0.0122247585161581 -0.02107587340203751 0.006935514578746481 -0.03181633819896092 -0.01420279080045034 0.06203621391919528 
0.05284682352263087 -0.0003607704304123814 -0.04025263875633385 -0.0552791817749451 -0.01185988020014759 0.01557102580218661 
-0.00445234670884135 -0.00494450042755472 0.005785744649917795 -0.02095455817371852 -0.01790588558078537 0.04365600985929271 
-0.0446929571079478 0.03998472143457652 -0.02493974583111517 0.04001193575027079 -0.009856312647690553 -0.009824148410029621 
0.009968777228681868 -0.01200932686524565 -0.02837559906362515 8.909528446190806e-05 0.05206613374303929 -0.003553392892424815 
-0.007865020028069223 -0.006965389646380223 -0.01164182142547309 0.009326201506591136 0.02154656019513953 -0.01120602179332326 
-0.009547182863422642 -0.0239179446003775 -0.02179614103507694 0.0307640779583889 0.01473561379036853 -0.001875847213429439 
-0.02547809599183584 -0.03559144698167573 -0.0215691581760239 0.05561550050426783 0.008635347141502788 -0.01669247273782077 
0.02846940956617041 -0.01314359737694122 -0.01991142015252419 0.02025537836074894 -0.005404349434349474 0.006588953939247854 
0.0563676495818824 -0.004378419609633352 -0.002218141200193043 -0.0310702368707133 -0.03608834567462071 -0.06480425660841198 
0.01261168892976464 -0.02036505248434876 -0.00670540011592078 -0.01488056494195227 -0.02128442367464666 0.02124356328611327 
-0.03107860476767665 -0.02056044002162274 0.02950189984703467 -0.03318434817148409 -0.03286865139408179 -0.01969076807213376 
-0.0003598366285567636 -0.01779126105288911 -0.01196769557505248 0.002230114425507751 0.02077159906486975 -0.0004814400898033194 
0.03306449123236262 -0.03007531430859487 -0.05931816858672494 0.001946239636341082 0.01880314924277004 -0.004678862363933984 
0.01868516131248869 -0.02167057483821714 -0.03487194024995639 0.02124498018436491 0.009874085348688111 -0.006719455040899813 
-0.0252979644277049 0.01537415629559676 -0.03290840383847887 0.007505527065149648 -0.004684145692812501 0.01927439736395105 
0.004310625408710886 -0.0306080462945255 0.003921629373666278 -0.02304591028776698 -0.008473923698379526 0.03689582821765221 
0.07524693443734587 -0.01076511098024971 -0.0378145804992589 -0.0359943094888066 -0.01370802483528106 0.02023569409707838 
-0.003202562464805557 -0.02078766542677173 -0.007694991834004338 -0.001252703386162614 -0.004769429202840935 0.03405112574494713 
-0.04784463913331649 0.01666989725943118 0.03293987470589239 -0.03349789217354209 -0.0107160207270824 -0.007048850757845481 
-0.02551258341864622 0.00527877538959178 -0.00891086901372309 0.006040823064030249 0.02028217208486809 -0.008861760358337994 
-0.01884491990788363 0.03624621242149523 -0.01836770819435039 0.001348786488450978 0.01866234504763647 -0.01961455804399101 
0.001061572479503479 0.01144405170074743 -0.0238811946789444 0.001565120169027498 0.03821811785016033 -0.02669545637409748 
-0.004763426002075789 0.01511047001833804 -0.02544314026370616 -0.01140856724830819 0.05250602385716487 -0.01982517554874364 
0.02417101429045946 -0.00683317701491229 -0.03119116440484727 0.00667806938727269 0.01332837922882616 0.005895679478837675 
0.08866715885731129 -0.001328979581867339 -0.04107122631361835 0.009134930909140171 -0.01952682483836479 -0.08476271803983505 
-0.04280484161454278 -0.03913942344857211 0.002242602569391561 -5.738944727254001e-05 -0.01305110630518452 0.03473618813887307 
-0.09093643099151458 -0.04175273170123702 0.05446938403561143 -0.05473308647628813 -0.04605724162317081 0.03660957661934653 
0.00100188116827931 -0.00948060413263635 -0.005232126217789077 -0.0007704973512842996 -0.005714674944514212 0.01827014119053025 
-0.009969013787699061 0.01635152462638065 -0.02618177486282134 0.003485129661713233 0.008762246829106467 -0.01915426707069333 
0.03377753103785618 0.007978031663891851 -0.0236960371586924 -0.01367017893066859 0.0005033109674283679 -0.005758572311144679 
-0.01922206668728131 0.01094772185491029 -0.01417227098665049 0.002536674895142903 0.003510224484640622 0.01413868238084135 
0.01403559852577108 -0.01238904601806701 -0.02440353597774453 0.008792540260668025 -0.01535216134635888 0.02743246555116537 
0.03803005943579394 -0.04661919276712818 -0.02036732334607311 0.006628035480525598 0.008576159479443089 0.04567075106644841 
0.01562674726207678 -0.03746279427989998 0.004906603921762029 -0.01828495517917992 -0.002946322880400432 0.01936281752175003 
-0.01388851610346424 -0.03996387855921573 0.05410331743975313 -0.03929021578184836 -0.02867257249202276 -0.03356230951769782 
-0.01463507896853206 -0.01550212348289075 -0.01203476197145427 0.01966109165570754 0.008382579611028793 -0.02143026155060318 
-0.00867625507783186 -0.001555472889839144 -0.01282923950032243 0.00338575048409417 0.03358019318726809 -0.01298817695723344 
0.03427652062508661 -0.02546320352667986 -0.01293417462500975 -0.002133571555454991 0.007426842678735489 -0.007676924787809334 
-0.001929723705833926 -0.03704348156154598 -0.02722299623841529 0.009373582295343654 0.003028287993621439 0.03602214848884728 
0.01211317117609906 0.01003035525446663 -0.01096176239330999 -0.01010806264044626 0.0005540146944275273 -0.004601584784419809 
-0.008974578342506232 0.02562101581986787 -0.02294253779987601 0.02223324531081871 -0.03333265788361684 -0.02977202380912022 
0.004651332961192937 0.02648507815519507 0.000821549543837785 -0.03328101771143701 -0.02785697958887508 -0.01145118440168448 
-0.01265963889659701 -0.02763918944461069 0.0212884167715986 -0.02391654004610812 -0.04094412599020218 0.02759790308765038 
-0.006980113224293031 0.01331887101302644 -0.03969632015151007 0.00990280658375798 0.01711053177188102 -0.00533801461517253 
-0.03081070676462223 0.008115833042417522 -0.003471009477638623 0.05134043454190988 -0.03117752203148933 -0.01619500210614487 
0.005024745620400537 -0.003079601732543447 -0.03314121660161762 -0.01851891414422115 0.01027859157177886 0.02787472989371108 
-0.00805022996072322 -0.02187492669332303 -0.02160451091294352 -0.01182875523550182 0.01207074340666211 0.02391492060312964 
0.01954816409704931 -0.01355845581188948 -0.009825225560732441 -0.005361250384400862 -0.003999532004040758 0.002826671324726247 
0.01899546266923154 -0.02106763150557289 -0.003084628927455035 -0.01912071627972871 0.002372686117466377 -0.01586010389655348 
-0.01120735436966267 -0.02394503168750308 0.005036027771961746 0.0003913430758181479 0.002911000613342773 -0.001012036054097381 
-0.01577807646340138 -0.04709901239478608 0.05045592419199067 -0.05165366103480411 -0.01612531897851007 -0.03012766030892016 
0.007486262764544322 -0.01470897143852507 0.003035457122713479 -0.01545174665577174 -0.001197047948452054 -0.009257079792927251 
-0.009746634880275934 0.0313032718735055 -0.006490543931662579 -0.01179346994068492 -0.01861053401860886 -0.005515685913520987 
0.002028603201833642 0.01462839207540768 0.0008258843076414977 -0.00641284573537758 -0.0047415730889399 -0.001185063843080607 
0.0006644828289458723 0.01723642858619777 -0.0126577172540992 0.01718579014440872 -0.009328858924012761 -0.01433559227634109 
-0.005163756427301017 0.00856214702625459 -0.005566197988191531 0.008867107475049827 -0.006973035696446792 0.001745590662397117 
-0.04111496693539804 -0.02230134815050168 -0.01431055868722791 0.04461215800241204 0.001308613566125115 -0.0002295232998126878 
-0.01332816012235155 0.01889030862489075 -0.001322688108161951 -0.006011398868590733 -0.004516701853691019 -0.0003548080782137624 
-0.03857573708762829 0.01841107866336717 -0.02397624389334023 0.03020828366669277 -0.02027293030065059 0.001760138518843079 
-0.001281473734979481 0.03174162421283568 -0.0249511058519975 0.001164784656718831 -0.005448062932368655 -0.006483269181929181 
-0.005356838933921759 -0.01880903841029262 0.01196898057777495 -0.02660825433012194 -0.02327899039632432 0.03049392900836729 
-0.01200044779869359 0.01595018563634736 -0.01473654939122521 0.007169182927717605 0.009621106771139814 -0.006388666480556414 
-0.01517560109434396 -0.01662707670831297 -0.01293614845864532 0.01749922406154216 0.01595458942011335 0.0005705065251276016 
-0.01445373365590151 0.0007225270872507094 -0.006723428967386921 0.005009488550149183 0.01485882491983394 -0.008106067383328712 
-0.02500207200956921 -0.01136273157087851 -0.006153664795316266 0.01588687512307905 0.0196988936625914 -0.006056098334048512 
-0.005929463697096849 0.01778160259856175 -0.001155345404942604 -0.004549174711126275 -0.003156001781900598 0.001502395302598282 
-0.009945559256647828 0.009485530527645211 -0.005655788485002055 -0.0006799035801767325 0.006688165785286066 0.001278970846880444 
-0.01591607715852413 0.04313312285698484 -0.01563659810053436 -0.006102867793395451 -0.01591305481226698 -0.01145429155488879 
0.01469504961969124 -0.009605908968145154 -0.005183174336385337 0.00520718991506685 -0.01562364305067938 -0.001006353567155451 
0.03811220065395941 -0.009054753657629569 -0.01548538380689566 0.00843214003615831 -0.01295058573660941 -0.02449518218689502 
0.007201779394848392 0.01340241996429571 -0.02100165343892593 0.02014351010738427 -0.007483381593712938 -0.03194342946412505 
-0.008248632993226224 0.008461835756273668 -0.0118566260101344 0.02387298006969089 -0.01087569773980586 -0.01220473354263208 
-0.004018256034179614 0.01141947805365537 -0.03523096006636914 0.02670930505225041 0.03903640255564112 -0.02078559378032937 
0.02413796328163664 0.01293610543032424 -0.00675428928941585 -0.01633598077128943 -0.03173978234763154 -0.002052639496136347 
-0.005161744489759797 0.01878910674272343 -0.02717658166990112 -0.01513114137695372 -0.03579312383952566 0.001437379075683402 
0.01499735213237993 -0.02295102420038249 -0.008848079049300827 -0.0006797633254891013 -0.00805724403939136 0.02176684274047484 
-0.002480915606621569 0.06447471844686327 -0.02513346038032514 -0.03519453750817381 -0.005412682375004068 -0.004098702652809008 
-0.003602860278427008 0.02532035584448752 -0.02033482427835565 -0.004457248632412604 -0.01147457558977931 0.01273109319837501 
-0.02101522049431642 0.03829143950433776 -0.009331540798643741 -0.0002030567141989052 -0.03290397468483082 -0.0003366434046584302 
-0.009827574377234107 -9.689037839494064e-05 -0.01407304688197742 0.02714147492979417 -0.01302530050368254 -0.009637584440573338 
0.03599025418816634 -0.02097221368951621 -0.01333327326564255 0.007269994360069325 0.01987562377351449 -0.01339668121973644 
0.0209450712518096 -0.003199296738799743 -0.004881513840819389 -0.01401649274466149 -0.0105456181483487 0.009396951991159133 
0.02647899335775082 -0.01663336249460372 -0.004807765212778933 -0.01342725400570756 -0.003827927492899581 0.01284491560342058 
-0.01196453878915519 0.01040694303049257 -0.005434503691364655 -0.008999696684409321 -0.04562279585902088 0.02113487428929398 
0.01379322463808725 0.01487987610438133 -0.02014125020744408 -0.02391203981949162 -0.004237223136274667 0.01961028307242278 
-0.03012130751994449 0.01356180668427844 -0.01856217781834237 5.399646264654582e-05 -0.01509411357816095 0.03228890361310282 
-0.006372840614608478 0.01307046279402384 0.00687689648685723 0.02728119796592049 -0.04710730221133553 -0.03553640362476962 
0.0005677062557491639 -0.01178970689595406 -0.006068033832975746 0.04110666950508977 -0.02489595925055081 -0.02195709726925493 
-0.01220024651215342 0.01548570855008268 -0.008574303132027292 -0.01464968379929221 0.01091145410405201 -0.02017932894410807 
0.004248386367351841 -0.00706579316495408 -0.01411501373638657 -0.008093443097941877 -0.01225223526258437 -0.01632505774057481 
-0.03066840143620558 -0.006496717991795329 -0.02632501097251525 0.02219934788942611 -0.03272697993771122 -0.02015761207100316 
0.005073377671023993 0.01902196819494309 -0.01944676009427658 -0.01392154493676803 -0.0005190874668875272 -0.021263961433805 
-0.03510180959568761 0.03422498312136391 -0.006133079365468133 -0.04085705972099094 0.02280689244912154 -0.03313069667772207 
0.01326937848636212 0.01904683385924471 -0.01087046712553236 -0.01366983028541786 -0.01858161278079733 -0.02587318383010245 
-0.0207222877933556 0.01577705858783262 0.02584391087057852 -0.04778650601615509 -0.0168660463269984 -0.02534597539072843 
-0.01121328582524709 0.02173381902844311 -0.001961194691824407 -0.01806589650127716 -0.03240665369063515 -2.826521022417733e-05 
-0.02332727700532636 -0.01432972706866571 -0.008230974406342302 -0.01538375727691601 -0.006901334959185351 -0.006379158119142174 
0.0186439420688494 -0.02569874835297757 -0.02445658405485832 -0.000758133856103366 -0.009778339521570692 0.04197073717571377 
0.005367206498840709 -0.005557733547482404 -0.05465886114178387 0.03198474578541446 0.01942104816400208 0.0224302469303977 
-0.004326985141171575 -0.006881972060728705 -0.03733169220061464 0.01376664406839101 0.007153043367946926 0.02564578010224756 
-0.009516312927950707 0.0186687537247358 -0.02508473229377862 -0.02058569077325881 0.04553042389576591 -0.01743608422323296 
-0.05565868264262639 0.005846154109540795 -0.02718722874208318 0.01810739529769534 -0.01399329618877516 0.02385391911244178 
-0.03311323640748293 0.005688089549161126 0.02422362660000974 -0.01276372123835446 -0.06724972983541869 0.0320646446495979 
-0.04619055880125962 0.01015695484407908 -0.006069458826330405 -0.0009361830262637241 -0.04193623408200175 0.03815996276606442 
-0.01193053200998537 0.001184676373803162 -0.02809582060113758 0.009651677041483734 -0.004000423887087419 -0.02448502458451107 
0.001138938085712554 -0.02148046851133201 -0.04021238067033104 0.0527410512535755 -0.01670986989067043 -0.01664842474101688 
-0.0013211141403813 -0.04268654980267816 -0.0370691717636626 0.08379503500837246 -0.0335394810307978 -0.03858502587746854 
-0.01188833985496532 -0.0256642871105778 0.001677436272340692 0.0104473814958419 -0.03491645676251538 -0.01621179485851247 
-0.006485794057124078 0.02791811333259798 -0.03506536874521438 0.02835565734037333 -0.01981717972883803 -0.01294706917339933 
-0.002136422209916417 -0.01372349206200487 -0.03203748489502685 3.31632400774411e-05 0.02841730973546012 -0.01773260446853462 
-0.03732546086902337 -0.03492037173915952 0.04140609385772258 -0.05750261632691225 0.003460783632581879 -0.01482042719777363 
-0.003518133511067535 -0.03000326335489424 -0.003357636346493271 -0.0103290625374191 0.01812818621634772 -0.01659299995511459 
-0.001261906152393918 -0.02078379175501583 -0.04991854200490361 -0.03302361906769392 0.04332790524991824 0.03088338701562778 
-0.04531605922273529 0.02028481046288175 -0.001896821590315918 -0.01566121160698457 0.005968273647779491 0.01624186630986491 
-0.03205661351913324 0.08542923072446863 -0.0206287051219495 -0.02503427459634533 -0.03501541717420956 -0.03398485961446632 
-0.003601294573864747 0.02968753872599308 -0.02776895897288277 -0.008631916229608801 -0.01981515004428054 0.01872830641267706 
0.006869191101907749 -0.01196042094238687 -0.01222802952004699 0.01050814920389158 0.01759357371446357 -0.02144585052489302 
0.0004771873544804831 0.001903863212745448 -0.006340861367978312 -0.004477894598816434 0.01177247620802204 -0.01776282134676994 
-0.04376990958870042 -0.01038074492063314 0.01667696647849933 -0.02119079824615084 -0.03775963335906166 -0.035725633333925 
-0.01500339366527726 -0.02168528131856983 -0.02489085701488518 0.0008086650575876888 -0.01465837442271574 0.04159239721402881 
-0.03125394119314311 -0.005239793974901359 -0.02817742155071035 -0.003366321024985919 -0.03848574387549943 0.01590435039126818 
0.01841036407483001 -0.007065099570540669 -0.01809783846605815 0.008508353849438485 -0.03333693402798611 -0.007446375321077401 
-0.08034308338054524 -0.001404225800837728 0.02861633024204353 -0.01708611319699237 -0.08957826538411923 -0.01578744093685242 
-0.01498068922877219 -0.004076479163555361 -0.01213365576649557 0.005611598997371612 0.006305197220277705 -0.01441412260632009 
-0.003001129775910317 -0.007206139942678423 -0.02548508326697255 0.01032537227854236 -0.01862016376432742 -0.008519579594522462 
0.002877071228418834 -0.0007157955485003478 -0.01895275589921845 0.00542810023505434 -0.02516947728094507 0.004115376829786202 
-0.07452755928316093 -0.01421382256774242 0.0303671613189387 0.009400721257059168 0.007596289119156272 -0.004554023334677799 
-0.0526636754544248 0.006012151969764249 -0.01672141395589766 -0.01482687599109371 0.03743212405415904 0.01100231725975532 
0.005022914261374313 0.00266534056713739 -0.02928404132719091 -0.009740147901631364 0.01427856973478615 -0.02070924370528649 
0.009825716824185558 0.01603843217468644 -0.0237796929382451 -0.02625239510039052 0.0160121967418425 -0.03908045774943662 
-0.001983130229925437 -0.01914813047663175 0.02425634849419205 -0.02692114662150758 -0.01243742843016554 -0.03810434443578947 
0.01145551016636404 0.0190021795493951 -0.03196140254060237 0.00989610099481229 -0.00753485836641047 -0.02220306461545102 
-0.007446623873238456 -0.006926579843003469 -0.02218848461477634 0.01419388556955248 0.0002091104677450093 0.002176828628218857 
-0.01302168977877366 -0.006975120122580504 -0.01940053980021367 0.005783975071350743 -0.003367944570158609 0.01493387782213358 
-0.09272662806752598 -0.04906860702403609 -0.01129888939426831 0.0806533267619336 -0.04400284660873756 0.0009411212511432608 
0.01064614492675408 -0.01787549827809362 -0.02656713580886505 0.006395564266236654 -0.008971232808682103 -0.01740143625355359 
0.02176864895973538 0.00618649917449979 -0.04359219270836581 -0.0230576536965016 -0.006496788355159016 -0.04409624727965099 
-0.03458010653976575 -0.007668792116006452 -0.02376600364972551 0.00936036764725591 -0.01789779584134997 0.03260432474748064 
-0.04438762653456955 0.01775758592168999 0.0570124553411673 -0.07512892125881658 -0.06470239741150201 -0.01493796450946545 
-0.01128286533524455 0.02601610580304736 0.0004542173188539968 -0.03527889240593774 -0.004890814703192591 0.009636272899592993 
0.01254415640310154 0.02696860004445915 -0.04105531472068401 -0.03912760908603449 0.01640758015354041 -0.0124358068660452 
-0.01267926263847411 0.007054571361271435 -0.03179503523519123 -0.006672819796384664 0.008576733682651503 -0.005868846746146568 
-0.02756556244576214 0.01382372537054562 -0.04872698886792259 0.02335400767291407 0.01587149793432082 -0.02545372815001992 
0.01381860740478571 0.0144577069550845 -9.754850123871287e-05 -0.0268333419622566 -0.02080968716850764 -0.007107136544128809 
0.0431645574991254 0.006396492998437274 -0.04435941654454216 -0.03339924625547475 0.01264524616464165 -0.01038881979416018 
-0.006173272369203753 0.04019224232041787 0.003551709980481872 -0.009769946843337608 -0.02169931145796578 -0.02224199502760325 
-0.07277032348857959 -0.01528630388659016 0.05520844195728637 -0.04875986749163056 0.0082109096577574 -0.0503241404553292 
-0.00974555098810663 0.00823497006863819 -0.02045040872280579 -0.003669382647671437 0.01701891428508116 0.01812153902145258 
-0.01567534249769507 0.02213620048895749 -0.02390999466166351 -0.004288517726985026 0.009030836028213496 -0.01812952731032143 
-0.01603552016370145 -0.002409389589420816 -0.01131082918335247 -0.01118656415684512 0.01456707035305843 -0.02046874063921699 
-0.007462592882514064 0.003651055511691868 -0.02283963627400411 0.01403768401148357 -0.03264362662289249 -0.002840613450310876 
0.03059613960505178 0.00127967375061508 -0.02720805134630747 0.005018089472882853 -0.02142599366764116 -0.03106493933553661 
0.01455667856563919 0.01047978407783346 -0.04112689734026675 -0.01061624808589207 0.003946756768079589 -0.01232359662484486 
-0.02322780406385608 0.02990914911968261 -0.03409901791582901 0.02233257610548919 -0.02439581654813088 0.005368990594399783 
-0.0442505903758331 -0.02623958858107228 -0.02197561514374444 0.04480563477170794 -0.01002379498864286 0.01435064421644521 
-0.03132057923085126 0.01540564237102139 -0.00995009773064205 -0.01220638190506025 -0.0223678578691034 0.04455777402868609 
0.01256625092001318 -0.007164317184856389 -0.03194803596814582 0.003802585483135363 0.009582712352642363 -0.02595473554413006 
0.008757627112224105 0.01161573640382471 -0.01158371640965324 -0.01514835693650609 -0.005119646485340436 0.01122381272978311 
-0.00516246836636476 0.01123844418404874 0.03102045399695104 -0.02246646182716509 -0.02331203905784262 0.001604310811556492 
0.01195774051845978 0.004732691323813668 0.004850012100830812 -0.01638723034082608 -0.03150570648698475 -0.006944568044987088 
0.03836167078212521 -0.03820798312036586 -0.04567914677333328 -0.0187036957763958 0.0397464933069676 -0.03526905929890992 
-0.03707307584592374 0.02362429863716496 0.01159493114824316 -0.05115415012850771 -0.01944096092965656 -0.01848196425983335 
-0.03789264162129326 -0.02650277086223667 0.07899768974935514 -0.086556573105178 -0.02916317702509846 -0.05856548969284307 
0.02612809156223833 -0.0004361491530836515 -0.001118927274755399 -0.02161076504565911 -0.008500968764094232 -0.01267130624429152 
0.01863009999784337 -0.005726094895444128 -0.0119013005842124 -0.01705982496466516 0.01153025690448839 -0.003954014998466247 
0.003214874094381924 0.0001563364917807799 -0.008698451769743126 -0.01412939782496112 -0.0208517103689822 0.008640441317284586 
0.02729877109663722 0.01532274005155949 -0.01648564409945648 -0.01560480768148749 -0.02552848588914375 -0.01222343426794421 
-0.007972599873273839 0.03124854415737856 -0.01440789581728005 -0.01409177103768681 -0.01574128346387782 -0.02847686280635514 
-0.01690800924136643 0.01392397362593604 -0.02765348077502921 0.04337626627132898 -0.007564049817462394 -0.0291671199494924 
0.0009264353311790579 0.008853227950623755 -0.02089568826842891 -0.003230514183320491 0.005629625563228095 -0.002684595051586363 
-0.01775877194252628 0.01207604358043033 -0.02283828254812762 0.01659305031491304 -0.01855980517149424 0.00352878487339957 
-0.000349770276517219 0.002135070608194753 -0.03193616880447499 0.01203150791549323 -0.00815253271213087 -0.009256290074998329 
-0.07260731555443058 0.004375924405675434 0.005653265960896637 0.02881812729430352 0.01238653150118608 -0.002673522246280441 
0.02819500388585174 0.03265487027623108 -0.03851235160427765 0.002555117861452807 -0.04322949319834701 0.004692570674931501 
0.002884931790253558 0.02068840943415608 -0.02030857016659564 -0.02848376882950704 -0.02556824329441995 0.04370421608121318 
0.0001675032344075164 0.03537552916367424 -0.02103125395410326 -0.01785257385056186 -0.01750493130128848 -0.00304060426385587 
-0.01374226016846294 0.03397510364432802 -0.001011119815453145 -0.03122575508019659 -0.00238818733475675 -0.01421885010804514 
-0.01489319576583479 0.005141630644450102 -0.0003579853485243774 -0.006585010425877265 -0.01771289283895639 0.004006634474336875 
-0.03308944445277354 -0.0294531667169254 -0.0002532855542162186 -0.009177150167813144 -0.004759588379182131 -0.01243405630047195 
-0.001269232714034336 -0.03840152291762994 -0.01627186194946461 -0.01158480833602408 -0.003953106841941043 0.01832336924260636 
-0.0201964133909327 0.04979303538405672 -0.0125654106748309 -0.01808996971074514 -0.01332990171554956 -0.01652730853095366 
-0.02794165612498042 0.03898516996166686 -0.008666424601087033 -0.01079443332068124 -0.002924653310587869 -0.007346974711255631 
0.003398295318894365 0.009814965974855207 -0.00246179863619834 -0.004132286162702533 0.005270646326416707 -0.005341082127589349 
-0.01108596568625438 0.002037770403320108 -0.002407682903935564 0.002846997177029658 0.005763117814227561 0.001350369792349716 
-0.04490155054024788 -0.009331098530788284 -0.008254092157032922 0.02543654946131002 0.003125161433128567 0.0157779589700593 
-0.03172617854788057 0.001323990198559222 -0.007411222580325771 0.004503309192655926 0.008153481080887861 -0.000143918561318707 
0.001076318126302943 -0.003378823263344196 -0.01021527576800306 -0.004751174253798115 -0.0008484913676892255 -0.01046482202593078 
0.03052118184359439 0.01768327384113832 -0.01188360321469154 -0.04720533800432226 -0.005464748156944229 0.004587730531070957 
-0.009917510164728419 -0.002648639652620456 -0.008516464926515456 -0.01449475318938065 -0.01659484897154189 0.01103326913287109 
-0.006765031465509858 0.004132811971146664 -0.006972239203437623 -0.01010184195980945 -0.008032675031272982 0.0139946892591571 
-0.01787528634765628 0.02776507273308966 -0.0002091920932290557 -0.01602885106301419 -0.003494770816902078 -0.008228382313739978 
-0.02179087517040407 0.01321650913568244 -0.01244196778884189 0.01424046104190755 -0.0002028941182938982 -0.009282800550425506 
-0.02615665675769895 -0.01617795732545249 -0.01943349201938637 0.04964999278715156 0.01208456702586619 -0.02892270696679207 
0.003161985270543158 -0.002331936355066455 -0.002383142781618654 0.004280647291880397 -0.004707182458081827 -0.004838596025805855 
0.000620252598337948 0.004989464993944481 -0.002676071866945939 -0.003422318695916226 0.001857578122059137 -0.0001252517502568791 
-0.003233304720832967 0.01268715262777642 -0.003271546932489771 0.002096463294057846 -0.01037689723926275 -0.004949669916233193 
-0.0001615098173979809 0.004570371565460976 -0.009688919951972876 -0.01515379185020168 0.004149764661982539 0.004000259355212931 
0.01654757990340439 7.993221853051493e-05 -0.01483308093280453 -0.02003748373043002 -0.02140093435148065 0.01330669104843526 
0.02404926703418574 -0.00137925772707641 -0.02235988904800713 0.002971278085221185 -0.01268996114363189 -0.001220197114060688 
0.05173698794255448 -0.001737476433367752 0.0008266341550919751 -0.001929713123882732 -0.01601648183649028 -0.03233105352060139 
-0.03876029494165345 -0.02965557871209035 -0.008488862758510815 0.0174519620690515 -0.02146730374027684 0.02334190533690067 
-0.01144065069096897 -0.01142878935246109 0.006313029051835325 -0.009342573820789873 -0.008136344156297017 -0.0155772335328974 
0.009730493888515221 -0.005012897261311003 -0.0125438087212878 -0.001897284205193168 0.007631167607455794 -0.02999456099937745 
0.01287616769267173 0.001362548880962687 -0.01880725497396967 -0.008852754713111147 -0.0075902104017345 0.01210343886804485 
0.02544480359967948 0.0383740694768292 0.002803109910969374 -0.04747181987960216 -0.02616317202028502 0.008209584756586346 
0.005331174226822196 0.01798906358397076 -0.00733944249466429 -0.01860574654821306 -0.0167065204644437 -0.00736948293952948 
-0.007178637601378901 0.02343011213904728 -0.01987289731055862 -0.00229705644253001 -0.03141104389588295 0.01072268875072328 
-0.01143421188956035 -0.001476505149790904 -0.02841608610083819 0.03701121861072311 -0.02577452270082562 -0.01003500622820365 
0.01532490952497454 0.04452361571716855 -0.04200685591548644 -0.001746317809778545 -0.05180371116065467 -0.03538589878350198 
0.03861659919403216 0.00287141920424151 -0.01971106008153908 0.002606658096422062 -0.03491654861442877 -0.01031688583259761 
0.001009889749057985 0.01484481878360502 -0.0359189529631396 0.02309579671636981 -0.01455084297757735 0.001739678229858196 
-0.01560003472592626 0.01608747185335627 -0.03461568308982926 0.01665634010094827 0.004202627734817845 0.0301324197275692 
0.006740482182609793 0.01235653700792042 -0.01132003722328465 -0.02085755268353707 -0.0153284160761156 0.01588852530635962 
0.05415835146217191 0.007873292993136723 -0.02658401132664579 -0.02253594901602182 -0.03866541024938835 0.01333033651059125 
-0.02065199190698028 -0.006306685414613305 -0.03696533137935825 0.03419530638561297 0.002437457206388718 0.01256667502203254 
-0.003285755945492776 -0.003138241181747269 -0.006638561299990713 0.003509257043952056 -0.01461665908294177 0.01570753899309685 
-0.04394836584945556 -0.01599640210534545 -0.01922329609447505 0.01735754907035486 -0.003269533319966178 0.01411310176639514 
-0.02069539048055396 -0.03953310840948839 -0.007493546134195402 0.02958056480438619 -0.02132677660848634 -0.02016534745799639 
-0.008918545610354985 -0.03300770678463413 -0.01144823949266735 0.02077760267385901 -0.01535007835506881 -0.02016251532096998 
0.01525252741074117 -0.001004684554714309 0.01128046852189174 -0.03825620243126021 -0.0194595718574795 -0.01893834718814513 
-0.01263744783237437 0.0314737087136839 -0.01810067096034465 -0.06187846396004641 0.02504009942484218 -0.04077124506668774 
0.001766955639346881 0.04350242811722797 -0.0173725008625245 -0.03183207757305652 0.02183381737532438 -0.02859955077927778 
-0.002915461248474105 0.03017662310752873 -0.02518245657532668 0.005163909443501983 -0.04815717723609425 -0.0112280837975839 
-0.01989095100929638 0.01816217463106306 -0.03043838070840975 0.02360257978751447 -0.03901592203369381 -0.01347010361516911 
0.03422102739999781 0.02026854933854958 -0.01213919194969136 -0.01449619820797558 -0.06123826292563456 -0.05010448735969392 
0.02023737308448508 -0.00945056212546121 0.01059206224214249 -0.01378307996155776 -0.05202307209360738 0.03008057332411249 
-0.04288481376548436 -0.001384482021463531 -0.003213682590498114 0.04894309146565962 -0.03860676010959241 0.02276645491688692 
-0.03742779569593629 -0.01340149635489108 -0.0206339597135935 0.008789773752664921 -0.01380902273491096 0.07225002736856963 
-0.006777089323048409 -0.003631093566806948 -0.02819189140781595 -0.00531020695504451 0.006474690674555669 0.03105867476651277 
0.007047460792110011 -0.02062754150477922 -0.009643293933062499 -0.02656337120496749 -0.0114987894165643 0.02521733216608646 
-0.02295178009632933 0.01636177270082655 -0.006944549127776852 -0.02421520251072186 0.02469861521520341 -0.006952361338427478 
-0.02878970804498978 -0.001257897123934608 -0.0153643995920209 0.005337220045243221 0.004485543137553346 0.01251253780195223 
-0.04760589935761084 0.001795007470967322 -0.05074943438332088 0.01734008363672076 0.04389640739084782 0.01784906500581946 
-0.03819002630583431 -0.04228998666907767 -0.007541014057035319 0.0123117674197072 0.01928938346845405 -0.02232966925748923 
-0.04454491013957801 -0.04183529275203159 0.01965363841458238 0.0208104676229524 -0.04219946106171896 -0.05970801444097072 
0.02135665776356157 -0.01966047730532143 -0.01919811038191021 0.02798958379784831 -0.0187327098011925 -0.01840208100497101 
0.0356285265072627 0.001287191196829259 -0.01625493379064763 -0.01916131810822316 -0.0124491066529404 -0.006327985510426274 
0.01395348291810969 0.008718764807384505 -0.01405425574646009 -0.01863436087229607 -0.005861867949251166 -0.01600268221389916 
-0.05194622849266685 0.01014212787645706 -0.004242175155290163 0.009883696520663839 0.0106309484539152 -0.04767015003438501 
-0.04047086137974608 0.004423083324126502 -0.01565012083723388 -0.008308400475151835 -0.02202131398060236 -0.003072955230838775 
-0.02151162920034429 0.009643966373824503 -0.0314197676614156 -0.006955178474505699 -0.01776307681571176 0.0006300899164763565 
-0.006019437001242819 -0.0248982171730831 0.007720515699058624 0.01037310095455951 -0.04721941897838464 -0.0137400533731695 
-0.02301312454210042 0.01188097364652202 0.00495791427975676 0.003869509943821349 -0.01826465461835498 -0.04192738142044888 
-0.0002139533681716928 0.04463400368773462 -0.0141961310189762 -0.01888121449694328 -0.02416823728273098 -0.0384437859633787 
0.0148235453628566 -0.01432061355200404 -0.01918704118135946 0.02648816830894118 -0.005753848352260407 -0.01559840841037665 
0.01832689773411201 -0.02396829586338546 -0.02731018429138054 -0.01071650395516003 0.008482380919510868 0.007749016220669919 
-0.03028687773099025 -0.005731751741773206 0.01006865878633642 0.01286474563950426 0.004460677009785115 -0.0231057107390149 
-0.04418317173721544 -0.002263122340235413 -0.02117892155785203 0.04048293323751931 -0.004990126808788723 -0.008910265954357443 
-0.01599431678240444 -0.01226896963925428 -0.05323150205093389 0.02024315635735493 0.02099579753115659 -0.007262581496227705 
0.0226688748152293 -0.01789474782302115 -0.008628182523900192 0.006758955992425296 -0.005608258249828147 -0.01152790468516159 
-0.02246890121093554 -0.03242361041513816 0.03394996287431098 0.007122589952755697 -0.001140532982642466 -0.04941767856974193 
-0.02367165834893134 0.002593922616254321 -0.0119306592049112 -0.002805905319757121 -0.01539129758633681 0.009473977583355209 
0.001122207855943528 -0.02053160060619857 -0.05079654200068785 0.005827337079804548 0.02869264977555575 -0.0003954628701514483 
-0.01511325335248101 0.001565202717353987 -0.03792095098801784 0.005739787463453628 -0.007037494475827865 0.006218285046055321 
-0.02377444753485346 -0.01024831221691408 0.05270144694787593 -0.04506252288252929 -0.03433842341906167 -0.04960380966891286 
-0.04938262283714426 0.05974078746575383 -0.01407153365330491 -0.0252317560036961 -0.03691773527945227 0.008343771406823837 
-0.04227847364239507 0.06458822556859953 -0.05834825372625917 0.002380174325925147 -0.04737774516563161 -0.04553771211588073 
0.005788530783542097 -0.003421688320477345 -0.02866526666762784 0.02219030902950809 -0.05409683423950125 -0.01786188948281958 
-0.03733761870685689 -0.01171912719904031 0.05618919541669518 -0.05279115482170839 -0.04958769463098803 -0.03391936230719789 
-0.01991984442196035 0.0103079553549615 -0.02732187519795378 0.005568540084846348 0.01945857348939028 0.01880541327472018 
-0.006132159616879557 -0.01950183504337577 -0.01679779503472633 0.001796698112321289 0.03894720280944068 -0.01319244124030797 
-0.03127646504320265 -0.01680945974439312 -0.01778588503171985 0.02350410668626448 -0.006233155069116777 0.008810081476428047 
-0.06838203686019803 -0.03147957115239881 0.0360424170559337 -0.009233598083371469 -0.03432107180501648 -0.02953269665176589 
-0.03931673679189369 0.01271402944208641 -0.01954766835994077 0.02413597602951846 0.02795511226864683 -0.03338987006271957 
-0.01814812787687704 -0.00555579299786836 -0.04445228012839781 0.04158264294770717 0.02360685788382771 -0.03445467133868404 
-0.02012359260023434 0.008595889621034714 -0.03910942360842678 0.01345686620173405 0.02101017088369889 0.008394476781705025 
0.02730299935307233 -0.007131619141012433 -0.01259847836578401 0.008906454867359291 -0.03256487885508886 0.004579003094729089 
0.01842240371476066 -0.01342667473781575 -0.02812369057684997 -0.003334428372312144 -0.004453526647862695 0.02640744912666253 
0.003425545384394529 -0.009247013128755354 -0.03753635686689308 -0.002469058751426742 0.01094265341777394 -0.004910293147213939 
-0.02146287693023738 0.004649634328857598 -0.02769686510540508 -0.005727150683674145 -0.001012845139599522 0.01281189596197027 
-0.03904075486723958 -0.001556467329943005 0.004606054129854876 0.007029514458304802 -0.008092769777112981 -0.02598237220342099 
-0.03608919288159052 0.03782862465905142 -0.01319410156995837 -0.02550140862696038 -0.0487237532603368 -0.003361025962593386 
-0.04571937610565269 0.05045578453712329 -0.05741010618634734 0.009946531514089049 -0.02949822118770581 -0.01772235546653213 
-0.03834532207330487 0.005950106229383969 -0.007776469403870942 0.00398789633812947 -0.03258005326716833 -0.01205963418520519 
-0.03328276141107965 -0.05098038331014373 0.06460963547746124 -0.04712578261639492 -0.04075212023713899 -0.04528336233751824 
-0.0004085578965759774 -0.00652607438102369 -0.009327721723252726 -0.008959916595045197 0.01858802597060119 -0.008510770581649389 
0.03593320342125021 -0.019388085207661 -0.01064597159811016 -0.003884409095342992 0.004049540802693393 -0.00977508700919656 
0.0328448369800439 -0.01388326091664834 -0.01290162094996221 -0.02790633449225648 0.003605059522521486 -0.02272939528282545 
-0.0239725456717936 -0.06585702168478653 0.001404861524112342 0.04196064554298272 -0.04215259159768527 -0.03474141447455741 
0.005697796802788674 -0.02345160663233094 -0.006492909497910838 0.003588856652724188 -0.01952756849038379 -0.007609371369326035 
-0.03379182380452263 0.002482313200069502 -0.04282451461237661 0.02420529307394786 -0.01826265637716339 0.01059236869458891 
-0.005311055461831952 0.009324838820189656 -0.01183995335572385 0.01599493067400092 -0.00517483246050673 -0.006408081524910662 
-0.02312954939220804 -0.00834715200115578 -0.02102562036935548 0.005453185592672724 0.0323590917127978 0.008716361912880183 
0.03337284206367012 -0.02138616597364598 -0.01476217593274664 -0.02766441594496779 -0.01224966922688686 0.01238306411973073 
0.06433472861918234 0.009743191375651092 -0.03965209106027358 -0.02996982771392817 0.03141893393684216 -0.03957268742193317 
0.02602316871256288 -0.01225358192049083 -0.02060019787377136 0.01691586171650901 -0.01609788672442592 -0.01206468221134537 
-0.02787258187156224 0.01082114622598019 0.0113180723171103 -0.001313919252682067 -0.0260134066271849 -0.01054170248870421 
-0.0005627046865283207 0.03669237328163848 -0.01637434806405839 -0.02285870603758958 -0.02836082786344874 -0.01835945396972381 
-0.0168803954020549 0.04785396503787682 -0.02682259062151058 0.004289564519340611 -0.04261825770406678 -0.02230976885646534 
-0.04529475300918221 0.0431697376521642 -0.01363609010643888 -0.01782681863305082 -0.03184330159547468 -0.03304298423751027 
-0.05317029938130201 0.03779761482769958 -0.02504208232567127 -0.006222373137765655 0.004577481192724113 0.00539654795550933 
0.01506284002954133 0.004727797960121891 -0.01653640232502256 0.001289115511059829 0.002651061980375818 -0.01903577923224553 
0.02220218095649631 -0.008410756981707082 -0.005396226139776461 0.001166871277197717 -0.004699572016126144 -0.01288452786182466 
0.0422722811217491 -0.03950313573822639 -0.009800315137941312 -0.006352723067716727 -0.0134446600944265 0.0001677977542724424 
-0.005992777765231312 -0.03295619501448174 -0.01287858531842531 0.008613938911761664 -0.01450237032914872 0.007150527030461359 
-0.01416310260873048 -0.004116000479381738 -0.01729640172464099 0.000487205637849311 -0.001219160812352213 0.001062151395518016 
-0.03951384968834118 0.01538033653763998 -0.01411080388543797 0.02340415747256419 -0.01349270797431967 -0.02635277394183057 
0.02381303738700948 0.01202347515569149 -0.01012280660122671 -0.0141507495156267 -0.006355484422878878 -0.01277932441888731 
0.004324592094845102 0.04801230956894034 -0.02657445063415433 -0.02888879192984867 -0.01665395372616248 -0.005592354422829234 
0.02958756057482686 -0.003113672278229424 -0.02149340594776416 -0.03148613135257073 -0.03120538195013867 0.01426040641410843 
-0.053170389484914 0.005131153326036607 0.01180340005769413 -0.0208620422306768 0.02458752355366417 0.03581119511662313 
0.05033984582001404 0.02792502349679985 -0.01824779006953808 -0.04160848175314732 -0.04316213699186927 -0.01302884962576176 
-0.0004365970198259865 0.01205820311221157 -0.007644788515893296 -0.01334610802762353 -0.02107750040780195 0.01114996855158091 
-0.01572271189767217 0.03057247081037662 -0.02265278477623592 -0.003907126083841249 -0.003952919897992379 -0.01164809795717997 
-0.02149177610639545 0.03472742320097308 -0.03556069025886159 0.01163840712246569 -0.02217204993653927 -0.04058592004519353 
-0.02640377430288753 0.01931718936572198 -0.05005994980250009 0.05654544402646342 -0.02229271924513773 -0.01480362085673006 
-0.02592318203717052 0.01523058724469169 -0.02559624323822753 0.01094630890592522 -0.0003244479861632114 0.004528922170315904 
0.01402713635465805 -0.02152561069918818 -0.007881068307424422 0.01137577137103363 0.0001927840158829627 -0.01800813961504203 
-0.01788327972619055 0.03998448910429345 -0.01305777352075956 -0.001888260414416193 -0.03113305132319464 -0.008495212811782626 
-0.00926104544367594 0.02734922033671855 -0.01806774967937445 -0.006332197279692588 -0.0005514762488156821 -0.008065482837731354 
-0.00612827559288515 0.007749540015384545 -0.00166318799230254 -0.01111650417210851 -0.001175746687551585 0.004682723628138295 
-0.004413729514889509 0.01506425793571387 -0.005976447967755203 -0.004588581288245614 -0.006925003690746564 0.005325347252862884 
-0.01773626372709254 -0.02508905697317044 -0.008327010179671851 -0.01017005104098627 0.02443595847923248 0.0305264109904321 
-0.01258171397985146 -0.004702416567876301 -0.003563119873512139 -0.005039648369442827 0.001106665583436284 0.02395641728953603 
-0.03214264336088019 0.004809850961327312 -0.0126446839737533 0.0210067660919454 -0.00171659450702341 0.001447827762173956 
-0.01891834465790015 -0.03112905316203627 -0.001548735089631521 0.03436276995130241 -0.02543779511303119 0.01395726120548418 
0.03580184138369156 0.02174200895530717 0.02823471465600012 -0.06646821889056814 -0.05328426036493585 -0.03685929996664512 
0.01359765933629948 -0.01272354060540891 -0.01856865986827898 -0.01077858880446969 0.01958963043919319 0.01180136507802177 
0.001262435966072762 0.01853012154716821 -0.005112883709821206 -0.01747590690421011 -0.009186140460505034 0.00110109800939461 
-0.03874743354797286 0.01400732136040285 -0.005404266873540163 0.02036976713253411 -0.01039654245795344 -0.005025824498933439 
-0.04835998948426995 0.03396780319690147 -0.006076938445567919 0.02368841154774387 -0.03126102752609797 -0.009711652841522086 
-0.0001717579403795444 0.0006782559356575782 -0.001158904767979108 0.002652699908883803 -0.005811648531150885 -0.001708947994332659 
0.00168892237906529 0.008868765004510615 -0.001586405020777052 -0.001622309411805599 -0.01167032573629965 -0.006069451030753651 
0.001759929757936783 0.008485627143701961 -0.003275103290216082 0.0001224146308754514 -0.007239686904158863 -0.008120089670803471 
-0.001893171005795783 0.0285185320927922 -0.01565499597844834 -0.004704643554666878 -0.005055049573785002 -0.004929419099259662 
-0.003113165739810879 0.02475399470525094 -0.01435877029343916 -0.01330308466569113 -0.02441797816486747 0.006424152470173656 
0.02699142446217097 0.01355949091126851 0.002701524369299762 -0.0323764149372535 -0.03233293803112555 -0.00465005430684574 
0.01754542725654093 -0.001773954567225445 0.009296743076115953 -0.01810443733874595 -0.01955660256872862 -0.001237229354180113 
0.06078761848846074 -0.04376559468881311 -0.01938066633008785 -0.03102789107322416 0.0153409491943931 0.001390554873394532 
0.007212156262891237 -0.002674739099857341 0.007204666681353253 -0.02171267222634611 -0.0278826603877321 0.000393790694837393 
-0.03060578399986758 -0.0009245242242032824 -0.004546270104742169 0.004948872903110032 -0.03430090289488852 -0.01810626779917687 
0.003816651756321719 -0.001739881110041579 0.009759603386725315 -0.02500524547227335 -0.01857840257666511 0.002463225762646635 
-0.00823933677141052 0.03288086821164814 0.001296965276704452 -0.03179577358070652 -0.04979866546073416 -0.02743677676708703 
-0.0006739282591368887 0.007624254903855148 -0.004141366310540462 -0.01080378579729681 -0.02201418622259121 0.01896169500335592 
0.0107797058108593 -0.03152015656093556 -0.001861970151570935 0.03402365788852521 -0.01177337186325841 -0.01698287593591776 
0.03218273476117278 0.01540289408674487 -0.007653961985418305 -0.00477947634411055 -0.02716105652806589 -0.01508321431110066 
-0.01562474901954888 0.02711131554089332 0.004566415523488759 0.01526748362719629 -0.05283050801448116 -0.02387147035996232 
0.01776820192268932 0.004489335114557275 0.02104888882409864 -0.003299261369679085 -0.05166221657546067 -0.009087692874736996 
-0.03312184092975124 -0.007906708140921785 -0.01630225074133761 0.04468064405171686 -0.01606766665774616 0.01054553393152294 
0.02626983107285493 -0.008907253755767812 -0.02352552279318159 -0.01160097630057269 0.01524751388080756 0.02623625795897303 
0.006871896586714851 0.004251380381673064 -0.007008198069454396 -0.006933154539558287 -0.03794901587154729 0.007965585287367447 
0.05840055479193328 -0.01712443551677342 -0.01399372788242977 -0.003286441804090905 -0.02791342580934848 -0.01403860402367069 
0.05342450633228223 -0.01540120974426839 -0.01830124400740851 -1.685722044109638e-05 -0.009589589304164042 -0.003237877869091486 
0.04223595602322846 -0.0124081058373513 -0.01276062786452569 0.01868241896603432 -0.02764336847204555 -0.01602975530945815 
0.02335705341571078 -0.009750405288724831 -0.023947151913626 -0.02283677864979884 0.03207536355766107 -0.02502096017540151 
-0.0160878143764677 -0.02696008890487614 0.01951101368709351 -0.005951656708119869 -0.007507211360601076 -0.006567905891705745 
-0.07790909909751344 -0.02664506813950363 0.006136467136155892 0.02662147592272828 -0.04327775236937774 -0.002046660062095345 
-0.0254908438366766 -0.001378629573871497 0.02205859621091673 -0.03474402780161436 -0.03060446688183258 -0.004631230793479183 
0.01779523799424443 0.05948394165625439 -0.02283335797001075 -0.03514287129748642 -0.02138860776513766 -0.03535424273763076 
0.00613836793911714 0.01922093842625755 0.000852078450010658 -0.02095290580893551 -0.010485175048641 -0.004334535376067772 
-0.01232641704279351 0.00940716004578041 -0.004067046238695896 -0.01091088676200718 -0.00139177552090319 -0.01467283422024383 
0.01466537793511086 0.02310650805228779 -0.009507693001024092 -0.01517588588072813 -0.025512154214127 -0.02141027182929842 
0.01673031947677725 -0.02689992046928747 -0.04358377443408057 0.06189677263939181 -0.02949502812982151 -0.05245460288839863 
-0.03117698375226271 0.003503195298418412 0.008497540454150746 0.01889094596624556 -0.04712405989290033 -0.01516838812478844 
-0.07775480889305753 -0.005134223067682631 0.05295971682298996 -0.02054335458711913 -0.06175186288953609 0.02375012578645973 
-0.05747734778287003 -0.01977061035207297 0.006472851769750257 -0.01839025875345231 -0.02554320251810235 0.08724015533955679 
-0.05646197578962023 0.03505341746428074 -0.03835570588911131 -0.01963602199602041 0.03676663181108358 0.01693100584963617 
-0.003856590996535522 0.0007145541137068778 -0.02426629913887387 -0.01320526526327006 -0.002315581962630722 0.05050349110150817 
0.01321105655959639 0.006922457192160668 -0.0315617062394703 0.02584616788853199 -0.03767896728964343 0.005845806886054413 
0.01055506466194497 -0.00301962997399344 -0.006100908422318327 0.00287648905700345 -0.01776798885931127 0.007274150087070193 
0.06518114660921449 0.02047276443247419 -0.03286026238808443 -0.01463886642309489 -0.05190950291278168 -0.00297088109316887 
0.003300549784211149 -0.02795747658831713 0.00318051027789761 -0.002010076614306916 -0.01236771985233336 0.02471440767538661 
-0.0475356007283675 -0.01673876330973753 0.02161330335994312 0.0211166863575853 -0.014828025243736 -0.002523966090347562 
-0.05724727007564948 -0.001692687942775176 -0.01401217016294804 -0.01247889087034732 0.04683724279403308 0.008471098674709151 
-0.05978540728583721 0.01626174257988978 -0.01796297226196722 -0.05962417469416034 0.07991610431299442 -0.01007812075328697 
0.007390465771119613 -0.01895158106423611 -0.001392357076933258 -0.01931179532044925 -0.01359277521772848 0.02312356239607452 
0.03121510195591472 -0.007156721203284699 -0.00888016224634453 -0.008835829102730047 -0.0236757141138318 -0.005255567425901684 
0.035023309918966 -0.01312547500569889 -0.03615915966605031 0.03561892243020486 -0.01625581376558119 -0.02846735822562053 
0.02081453149791077 -0.0432460085079447 -0.03349547267905827 0.04099473947891398 -0.03677377095372449 -0.03066974256512937 
0.02463887212103518 -0.04533257118087183 -0.01444096916088377 0.05213738038095497 -0.03342430827430378 -0.02707290026497607 
-0.02851173031758106 -0.03040294025770043 0.0319581239605322 0.002765040117689093 -0.04536724739732224 -0.05339896845746527 
-0.01614837539634408 -0.000274280952012385 -0.0170248469460569 -0.003662718674260546 0.001640765786180759 0.001906403100036494 
-0.01860677452357691 0.008816537724066735 -0.01829059197393349 -0.03100158988872886 0.05046582900122186 -0.0002270507827558849 
-0.0362375433672498 0.02639049296249832 -0.0275717353948801 -0.03697866155445324 0.05109436594891974 -0.01738755937555302 
-0.04982021995280041 -0.01737673223726571 -0.01861579553985073 0.008271962535937059 0.03008104979584037 0.02716610622345248 
0.008135203120599918 -0.006670803789711452 -0.005831857105881286 -0.007340318757052707 -0.00733472261105452 0.01637063302583281 
0.05895668751142654 0.02597105334651386 -0.04536183096193402 -0.02658963906814907 -0.03009183801467689 -0.001235370870418026 
0.0114076455840007 -0.001675519179448606 -0.007291695296002327 0.02118395020361991 -0.04152548949163849 -0.005424637499573921 
-0.002857948743395313 0.01748535113078537 -0.001895315141601196 0.01541060388986515 -0.04897598352853872 -0.01173740062010599 
-0.0161954926648063 0.002036016205601607 -0.01881753078392959 -0.01266636267823485 -0.006093649222149096 0.02393469481749333 
-0.04437045622710818 0.02668349415342632 -0.04185351952217688 -0.04046669888660535 0.02924854069684752 0.0328313263432309 
0.01980905396757583 -0.00916508195514195 -0.0260227104941459 -0.003893363033436733 0.02427277203026509 0.005270432359869692 
-0.01349700905914771 -0.03238581299694647 -0.0005763148339335729 0.004089313482767222 -0.008998458769412283 0.01447458159751677 
0.03726974865593825 -0.07314650425150121 -0.01796108590912142 0.05362704154844536 -0.01021892513871911 -0.02951721232597426 
0.02438433702527713 -0.02935625298294881 -0.03228224989215928 0.0276990443242353 -0.03111179243693707 -0.09434912081582839 
0.02212902248806313 -0.03006386354835434 -0.02772297729713732 0.04581822293140087 -0.01947679261395702 -0.02792515613780052 
-0.008970501937520395 -0.0227377131942707 0.01786358061335585 -0.04254992020776514 -0.009019802928783885 -0.06946423087279163 
-0.03590859659671253 -0.01875370905611743 -0.004652600571606749 -0.02663497857329953 0.03629684533650099 0.009682184500776451 
-0.04665141359045113 0.007049684261210969 -0.01477616741567212 -0.01254381821133378 0.02381390286498817 0.01683631856511519 
-0.008095372190735969 0.0251770449509807 -0.01374957346571196 -0.02635660458033433 0.01299131778052636 0.004726407362335577 
-0.0267468070791675 -0.00154032647385843 0.002854119174380559 0.01856274994546819 -0.03534559462397956 0.02667968685513295 
-0.006524566854216295 0.0003676598415416542 0.008405883335903102 -0.008975117855389932 -0.03023709477952371 0.02948767901437996 
0.04848998613874833 0.01098501789461655 -0.0220485589497 -0.006158980959471817 -0.0460076803912858 -0.03251540168211007 
0.007456636425453025 0.008834468571983051 -0.03158351392571058 0.006837913027224698 -0.006410746638359183 0.00118590123904359 
-0.003608299731392255 -0.001940225159260249 -0.01364401216739172 0.01425199367421033 -0.01318546112161045 0.006054086439268369 
0.009412189959329431 -0.004420625010203003 -0.01897999831816194 -0.0137804871081589 -0.002296464023240603 0.02762092251098109 
-0.03652173289053302 0.01780401302145095 -0.06352813321544758 -0.04012554146835028 0.09349607292626695 0.01443272302026998 
-0.01155830759480742 -0.004454326323122776 -0.01236912139413821 -0.02054554289850581 0.005645692215077385 0.005416889598437949 
-0.01014954733178866 -0.005146372017394856 0.003103024087519176 0.0184893433182483 -0.03794030072087737 -0.05756096935878425 
0.01188985760681451 -0.01610001471784546 -0.008499261893331583 -0.004293501497182685 -0.04238353008121351 -0.02427952908130309 
-0.01898572773562216 -4.889923905339993e-06 -0.05739879376419968 0.04796120931179738 -0.03501322787068857 -0.06532095080292501 
-0.01171521327268315 -0.02225470377678406 -0.02686144038305901 0.03868084031326402 -0.02022556552399369 0.002810003134136737 
0.0157174065172634 -0.03728829353727059 -0.02039078287365257 0.012633315717375 0.009842878536924339 -0.01050087216335583 
0.0161382397511612 -0.02571807390562276 0.002913587343788624 -0.03584032920808022 -0.001433004167057435 -0.001568420636966318 
-0.000422878440395886 0.01405229178374493 -0.006814393645388649 -0.02684106717274175 0.02014135017308757 -0.01623796668764193 
-0.04011752237529232 0.01819421610155973 -0.01531429107255922 -0.02741719782569587 0.05958904198733274 0.0009253140489298869 
-0.01987608620267575 -0.0107526214688147 0.03077960005813396 -0.0176199067548133 -0.04899173688123273 0.0344435068675992 
0.01349939246466437 -0.0008111139724527331 0.006397701271040535 -0.02984044646268549 -0.03764298236100271 0.01263779927864508 
0.01067829408968959 0.02925510424114408 -0.0260719855686191 -0.03784611325980163 0.04287533604317552 -0.03820506041811051 
0.003075821844570171 0.005651975814666255 -0.01100088131046724 0.00410330023915388 -0.007644908678550818 -0.007272607400866627 
0.008128264976071834 0.01960292025387565 -0.007658831942516931 -0.02806529375630965 -0.02059240906505892 -0.009763472546747845 
-0.005342625006859458 -0.0006560611935649202 -0.01916463823338137 -0.013909116056223 -0.001074703261301309 0.01577619909900979 
-0.03028332755661671 0.05596929801947355 -0.02117113158889944 -0.03902803219075045 -0.005182625518056197 -0.01469684831622068 
0.004277421256644906 -0.009510797240557457 -0.008325567432650501 -0.03023310045047255 0.001786063038366805 0.02905453654245858 
-0.03026811244468419 -0.04267910192007199 0.01252465489836345 0.02121264735471712 -0.04740583046623159 0.007386372189601369 
0.01111286419782588 -0.03763854087569183 0.004585950864399312 0.003125917797613844 -0.04167565109192353 -0.003784945171450277 
0.02832861697011981 -0.02613447931406504 -0.03111107263437337 0.02797379676115277 -0.06164572483507486 -0.04558766154281024 
0.0382695545542033 -0.01065061306021977 -0.04266749137124518 0.02845667263688798 -0.03197895236530803 -0.02034678368731709 
0.05489147991085812 -0.02688425995011039 -0.02159710853482089 0.02375835955515598 -0.0131358677466499 -0.02168747739191757 
0.03207935047689999 -0.03298932079117161 -0.01495523201814571 0.019908700160018 0.002836178896912483 -0.001246112583698418 
-0.003615694187757421 -0.008318802124975102 -0.0157628004502399 -0.007028997814674173 0.007304405512509122 -0.009006004868920557 
-0.01485960328367761 -0.02378622530244398 0.002782919839371118 -0.01550289009157813 -0.01036998603665985 -0.009709520543663324 
-0.004026155086949534 -0.03921778504231323 -0.004068957167656539 0.02575220004720686 -0.02406348679446451 0.01369997882404522 
-0.002948420315136721 -0.01875809526298551 0.005493785476155835 -0.01560985854804008 -0.004015317666352162 -0.001512269856234704 
-0.01675803569671409 0.005540572253888973 -0.01682825580987474 -0.01539509245689167 0.0390323252116933 -0.00573384870734258 
-0.0006527551131303902 0.02167503925074799 -0.004352356908021161 -0.02503267184275361 -0.01342473484344405 0.006442664587941661 
-0.004458789032119277 0.005356766432452747 -0.01939656105185421 -0.008826811433908482 -0.02525339821702606 0.001814735667863902 
0.00173260144731134 0.04688824079331634 -0.02702514688159938 -0.03264584254779651 -0.05083060501649356 0.009579696782513509 
-0.06553930708685138 0.08103691446686229 0.0001430817384561256 -0.01164554766376056 -0.00576491507218645 -0.008557104521464633 
-0.004006193430569419 -0.01609786559703741 -0.008601644930382317 -0.01723625807076347 -0.01355090682433767 0.03988357107411086 
0.02395564304747115 -0.002608169903378234 0.0174838048396003 -0.02219984088828508 -0.04483001334846658 0.007463543818439804 
0.009076922444863477 -0.01675717052299755 0.01905282703168094 -0.01922941668239028 -0.03953133108484086 0.001447270851088567 
0.006097156979110524 0.01920005913877616 -0.02618344682780713 0.008652029889588745 -0.01981308176087113 -0.04641752328763141 
0.0119753259141021 -0.02954919210975618 -0.02329648913858563 0.03795354187096254 -0.01387377512100615 -0.001469472344577926 
0.01588947011229748 -0.02224559527797546 -0.006692458792798255 0.02544927862862014 -0.01114057508807845 -0.01240462381659283 
0.03694657093567984 -0.01732288732893045 -0.003791773016464209 -0.003628216172717079 -0.02619148243163927 -0.003174740475599599 
-0.01071717223407745 0.01923777980177286 -0.007421049046046662 -0.003021924483097912 -0.009984522304175692 -0.001217061125034971 
-0.007340968605427155 0.01289588265872225 -0.01420151360784663 -0.003240497371010606 0.004907735484078128 -0.007096026023077806 
0.003103715188375585 0.01455329439442751 -0.005833057201418557 -0.002990463399440588 -0.01317314691791496 -0.002899044924166164 
0.002337586477933432 0.003121770677748474 -0.001332092746041761 0.0008199870948715108 -0.005949848774813522 0.002461435375778802 
-0.006125849003500388 -0.02994891630892551 0.01288859798002235 -0.01871392709481465 0.03212848178895716 -0.02614733758107033 
-0.01358834847148919 -0.007711366358165079 0.0228165847440633 -0.01982948077729732 -0.003421363322367335 -0.004542964443440671 
-0.0176840235062169 -0.02598354780604213 -0.004639442718990393 0.01044920295272454 -0.01903753189426875 -0.007650336265001799 
-0.02607700922516626 -0.004910989215839064 0.01488122799837059 -0.02639940517588285 -0.002412330568413678 0.04913450373453125 
-0.03019725386851158 0.03843587812289539 0.01035532963600079 -0.006193994033633419 -0.0294140659872044 -0.03728541832906031 
0.06213205466447486 -0.008392930924709845 -0.02502145434641767 -0.02860098804671807 -0.01128582078362857 0.02887952717121101 
-0.01881351286355556 0.04098521324680116 -0.007627578074955944 -0.0319969655376274 0.0006282934878633374 0.0005158417764807947 
-0.03080331582904865 -0.001939338191155524 -0.009375545993861872 0.02446042089092242 -0.005146860194220776 0.01064690996971881 
-0.06249137149733469 0.009362973186627306 -0.008699618245005944 0.01735867794610479 -0.02178346211976306 0.01578410414554242 
-0.02224366322089727 -0.003606457494633791 0.005159419328766843 0.008435004710891149 -0.01249003455363814 0.01489733819495152 
-0.00759681418489935 -0.008173282696028334 0.002442405418001652 0.03764435605699387 -0.01841909513778292 0.004580185148804667 
-0.006838081086468825 -0.0006194145343009134 0.008156895587792588 0.005921992026152592 -0.007005381921155126 -0.005197944330127895 
0.00311603183789171 0.01218132033567113 -0.01106588871982682 -0.008055496827481416 -0.01971352345991804 0.009925595241125207 
0.00153223065859658 0.02140345960533598 -0.007643079457247468 -0.008400824935168388 -0.02269405704145161 -0.002449644092506835 
0.01591471943698447 0.03948943878910051 -0.0081763142333298 -0.02783024878225352 -0.0338870823521086 0.006974938915103692 
0.01450330106477956 0.01144354632925019 -0.00503534138985622 -0.007855778218556046 -0.01667221383785254 0.002159938837245018 
